{"learner":{"attributes":{"scikit_learn":"{\"_estimator_type\": \"regressor\"}"},"feature_names":[],"feature_types":[],"gradient_booster":{"model":{"cats":{"enc":[],"feature_segments":[],"sorted_idx":[]},"gbtree_model_param":{"num_parallel_tree":"1","num_trees":"600"},"iteration_indptr":[0,1,2,3,4,5,6,7,8,9,10,11,12,13,14,15,16,17,18,19,20,21,22,23,24,25,26,27,28,29,30,31,32,33,34,35,36,37,38,39,40,41,42,43,44,45,46,47,48,49,50,51,52,53,54,55,56,57,58,59,60,61,62,63,64,65,66,67,68,69,70,71,72,73,74,75,76,77,78,79,80,81,82,83,84,85,86,87,88,89,90,91,92,93,94,95,96,97,98,99,100,101,102,103,104,105,106,107,108,109,110,111,112,113,114,115,116,117,118,119,120,121,122,123,124,125,126,127,128,129,130,131,132,133,134,135,136,137,138,139,140,141,142,143,144,145,146,147,148,149,150,151,152,153,154,155,156,157,158,159,160,161,162,163,164,165,166,167,168,169,170,171,172,173,174,175,176,177,178,179,180,181,182,183,184,185,186,187,188,189,190,191,192,193,194,195,196,197,198,199,200,201,202,203,204,205,206,207,208,209,210,211,212,213,214,215,216,217,218,219,220,221,222,223,224,225,226,227,228,229,230,231,232,233,234,235,236,237,238,239,240,241,242,243,244,245,246,247,248,249,250,251,252,253,254,255,256,257,258,259,260,261,262,263,264,265,266,267,268,269,270,271,272,273,274,275,276,277,278,279,280,281,282,283,284,285,286,287,288,289,290,291,292,293,294,295,296,297,298,299,300,301,302,303,304,305,306,307,308,309,310,311,312,313,314,315,316,317,318,319,320,321,322,323,324,325,326,327,328,329,330,331,332,333,334,335,336,337,338,339,340,341,342,343,344,345,346,347,348,349,350,351,352,353,354,355,356,357,358,359,360,361,362,363,364,365,366,367,368,369,370,371,372,373,374,375,376,377,378,379,380,381,382,383,384,385,386,387,388,389,390,391,392,393,394,395,396,397,398,399,400,401,402,403,404,405,406,407,408,409,410,411,412,413,414,415,416,417,418,419,420,421,422,423,424,425,426,427,428,429,430,431,432,433,434,435,436,437,438,439,440,441,442,443,444,445,446,447,448,449,450,451,452,453,454,455,456,457,458,459,460,461,462,463,464,465,466,467,468,469,470,471,472,473,474,475,476,477,478,479,480,481,482,483,484,485,486,487,488,489,490,491,492,493,494,495,496,497,498,499,500,501,502,503,504,505,506,507,508,509,510,511,512,513,514,515,516,517,518,519,520,521,522,523,524,525,526,527,528,529,530,531,532,533,534,535,536,537,538,539,540,541,542,543,544,545,546,547,548,549,550,551,552,553,554,555,556,557,558,559,560,561,562,563,564,565,566,567,568,569,570,571,572,573,574,575,576,577,578,579,580,581,582,583,584,585,586,587,588,589,590,591,592,593,594,595,596,597,598,599,600],"tree_info":[0,0,0,0,0,0,0,0,0,0,0,0,0,0,0,0,0,0,0,0,0,0,0,0,0,0,0,0,0,0,0,0,0,0,0,0,0,0,0,0,0,0,0,0,0,0,0,0,0,0,0,0,0,0,0,0,0,0,0,0,0,0,0,0,0,0,0,0,0,0,0,0,0,0,0,0,0,0,0,0,0,0,0,0,0,0,0,0,0,0,0,0,0,0,0,0,0,0,0,0,0,0,0,0,0,0,0,0,0,0,0,0,0,0,0,0,0,0,0,0,0,0,0,0,0,0,0,0,0,0,0,0,0,0,0,0,0,0,0,0,0,0,0,0,0,0,0,0,0,0,0,0,0,0,0,0,0,0,0,0,0,0,0,0,0,0,0,0,0,0,0,0,0,0,0,0,0,0,0,0,0,0,0,0,0,0,0,0,0,0,0,0,0,0,0,0,0,0,0,0,0,0,0,0,0,0,0,0,0,0,0,0,0,0,0,0,0,0,0,0,0,0,0,0,0,0,0,0,0,0,0,0,0,0,0,0,0,0,0,0,0,0,0,0,0,0,0,0,0,0,0,0,0,0,0,0,0,0,0,0,0,0,0,0,0,0,0,0,0,0,0,0,0,0,0,0,0,0,0,0,0,0,0,0,0,0,0,0,0,0,0,0,0,0,0,0,0,0,0,0,0,0,0,0,0,0,0,0,0,0,0,0,0,0,0,0,0,0,0,0,0,0,0,0,0,0,0,0,0,0,0,0,0,0,0,0,0,0,0,0,0,0,0,0,0,0,0,0,0,0,0,0,0,0,0,0,0,0,0,0,0,0,0,0,0,0,0,0,0,0,0,0,0,0,0,0,0,0,0,0,0,0,0,0,0,0,0,0,0,0,0,0,0,0,0,0,0,0,0,0,0,0,0,0,0,0,0,0,0,0,0,0,0,0,0,0,0,0,0,0,0,0,0,0,0,0,0,0,0,0,0,0,0,0,0,0,0,0,0,0,0,0,0,0,0,0,0,0,0,0,0,0,0,0,0,0,0,0,0,0,0,0,0,0,0,0,0,0,0,0,0,0,0,0,0,0,0,0,0,0,0,0,0,0,0,0,0,0,0,0,0,0,0,0,0,0,0,0,0,0,0,0,0,0,0,0,0,0,0,0,0,0,0,0,0,0,0,0,0,0,0,0,0,0,0,0,0,0,0,0,0,0,0,0,0,0,0,0,0,0,0,0,0,0,0,0,0,0,0,0,0,0,0,0,0,0,0,0,0,0,0,0,0,0,0,0,0,0,0,0,0,0,0,0,0,0,0,0,0,0,0,0,0,0,0,0,0,0,0,0,0,0,0,0,0,0,0,0,0,0],"trees":[{"base_weights":[-4.0277075E-3,6.1004704E-1,-1.8185118E0,6.401443E-1,-6.034786E-1,-1.0941206E0,-2.1724882E0,6.932024E-1,1.259511E-1,2.0836717E-2,-8.6574745E-1,-1.3543742E0,-1.9193833E-1,-2.2928112E0,-1.525419E0,4.6089995E-1,8.107416E-1,2.2308041E-1,-7.275379E-1,-0E0,-9.057077E-1,-0E0,-1.4633765E0,2.0054258E-1,-5.313533E-1,-2.3145664E0,-0E0,-1.5820153E0,-0E0,4.9487868E-1,-3.9630133E-1,1.5178967E-1,8.630112E-1,4.299356E-1,-1.3757019E-1,-2.3417527E-2,-0E0,-0E0,-9.453086E-1,4.5697945E-3,-5.2769285E-2,-1.8561769E0,-9.445281E-1,3.6894953E-1,-0E0,-6.3234943E-1,1.9141816E-3,-2.3264196E0,-1.052171E-2,-0E0,2.4173856E-3,-1.6149158E0,-0E0,5.3979135E-1,-4.7023382E-2,1.6956434E-1,-6.076951E-1,1.1748188E0,-1.3305725E-1,8.864022E-1,1.6112585E-1,5.250916E-1,-7.583352E-2,1.2055429E-1,-2.7466312E-1,-9.821078E-1,-0E0,-1.3827749E-1,-0E0,-1.9670169E0,1.3297548E-2,-1.0031586E0,-0E0,-0E0,1.166829E-2,-1.1397871E-1,8.0720186E-2,-7.0004606E-1,-0E0,-2.3365858E0,-1.3762031E-2,-1.6624806E0,-4.063897E-3,5.8849335E-1,-4.160297E-3,-1.8169798E-1,1.33938575E-2,5.6953686E-3,-0E0,-6.6684395E-1,-0E0,4.125264E-2,-0E0,1.6921721E-1,-8.136534E-1,9.7131443E-1,7.2633487E-1,-3.736947E-1,3.2239592E-1,5.87619E-1,-4.505846E-3,-1.8918589E-1,3.6139244E-3,2.762663E-1,-9.581717E-2,1.0305647E-1,-3.6703777E-1,-0E0,-3.0237522E-2,-0E0,-4.6545076E-3,-2.0361185E0,-1.1261214E-2,-1.0554248E0,-0E0,-0E0,-5.0241323E-3,3.6653958E-3,-0E0,-7.504761E-1,-0E0,-7.025054E-2,-6.7912363E-3,-1.694256E0,-0E0,1.848466E-2,-4.922473E-3,4.3753795E-3,-9.647913E-3,-9.972116E-4,-1.6722007E-2,-2.1076176E-2,-0E0,1.1966456E-2,-7.725286E-3,-3.5367634E-2,1.3166534E-3,2.935535E-2,-0E0,2.2308644E-2,2.0280886E-3,-1.6392773E-2,-0E0,-0E0,1.0948068E-2,2.7704554E-2,1.294492E-2,-7.7132666E-3,-0E0,1.1473115E-2,-0E0,-4.304888E-3,-0E0,4.2719604E-3,-0E0,-1.3572872E-2,-0E0,-6.323948E-2,-1.2953296E-2,-1.3240356E-2,-3.654655E-2,-2.3882732E-2,-0E0,-2.1797537E-3,-5.1493324E-2],"categories":[],"categories_nodes":[],"categories_segments":[],"categories_sizes":[],"default_left":[0,0,0,0,0,0,0,0,0,0,0,0,0,0,0,0,0,0,0,0,0,0,0,0,0,0,0,0,0,0,0,0,0,0,0,0,0,0,0,0,0,0,0,0,0,0,0,0,0,0,0,0,0,0,0,0,0,0,0,0,0,0,0,0,0,0,0,0,0,0,0,0,0,0,0,0,0,0,0,0,0,0,0,0,0,0,0,0,0,0,0,0,0,0,0,0,0,0,0,0,0,0,0,0,0,0,0,0,0,0,0,0,0,0,0,0,0,0,0,0,0,0,0,0,0,0,0,0,0,0,0,0,0,0,0,0,0,0,0,0,0,0,0,0,0,0,0,0,0,0,0,0,0,0,0,0,0,0,0,0,0,0,0,0,0],"id":0,"left_children":[1,3,5,7,9,11,13,15,17,-1,19,21,23,25,27,29,31,33,35,-1,37,39,41,43,45,47,49,51,-1,53,55,57,59,61,63,-1,-1,-1,65,-1,67,69,71,73,75,77,-1,79,-1,-1,-1,81,-1,83,85,87,89,91,93,95,97,99,101,103,105,107,-1,109,-1,111,-1,113,-1,-1,-1,115,117,119,-1,121,-1,123,-1,125,127,129,-1,-1,-1,131,-1,-1,-1,133,135,137,139,141,143,145,-1,147,-1,149,151,153,155,-1,-1,-1,-1,157,-1,159,-1,-1,-1,-1,-1,161,-1,-1,-1,163,-1,-1,-1,-1,-1,-1,-1,-1,-1,-1,-1,-1,-1,-1,-1,-1,-1,-1,-1,-1,-1,-1,-1,-1,-1,-1,-1,-1,-1,-1,-1,-1,-1,-1,-1,-1,-1,-1,-1,-1,-1],"loss_changes":[1.8724991E3,4.6628326E1,1.0259009E2,3.2863647E1,1.18416815E1,3.251758E1,1.3129517E1,2.8924988E1,9.854427E0,0E0,1.0909653E0,1.6960938E1,5.041009E0,1.2740601E1,3.9637833E0,1.1480515E1,2.4477417E1,8.321539E0,3.506937E-1,0E0,1.0122414E0,1.3550897E-1,1.6085022E1,6.7754304E-1,1.567143E0,2.4300537E0,1.9479176E-2,2.5458908E0,0E0,9.204964E0,2.2194598E0,1.7443699E1,1.0321899E1,3.6731539E0,1.5587598E0,0E0,0E0,0E0,8.0864716E-1,0E0,9.52318E-2,1.677829E1,2.5765076E0,2.5224686E-4,1.10525616E-1,6.434479E-1,0E0,8.2580566E-1,0E0,0E0,0E0,2.0283813E0,0E0,9.277695E0,1.9571987E0,4.0510297E-4,4.5996952E-1,2.856947E0,1.0061021E1,6.6427E0,2.3715696E0,2.9286633E0,3.469507E-1,6.148496E-1,1.1846097E0,2.1678543E-1,0E0,5.634047E-3,0E0,3.2048492E0,0E0,2.721508E0,0E0,0E0,0E0,6.228593E-2,2.7132936E-2,6.071844E-1,0E0,1.0900879E-1,0E0,2.0359192E0,0E0,6.9233627E0,1.5625911E0,1.0620196E0,0E0,0E0,0E0,4.4122696E-2,0E0,0E0,0E0,3.5102515E0,5.369485E0,3.021576E0,2.1926193E0,6.550193E-1,3.4766054E-1,1.4619598E0,0E0,2.3703194E-1,0E0,2.6057655E-1,4.787032E-2,3.7663125E-2,6.5594816E-1,0E0,0E0,0E0,0E0,2.789795E0,0E0,2.4935036E0,0E0,0E0,0E0,0E0,0E0,4.2443752E-1,0E0,0E0,0E0,4.7514343E-1,0E0,0E0,0E0,0E0,0E0,0E0,0E0,0E0,0E0,0E0,0E0,0E0,0E0,0E0,0E0,0E0,0E0,0E0,0E0,0E0,0E0,0E0,0E0,0E0,0E0,0E0,0E0,0E0,0E0,0E0,0E0,0E0,0E0,0E0,0E0,0E0,0E0,0E0,0E0,0E0,0E0],"parents":[2147483647,0,0,1,1,2,2,3,3,4,4,5,5,6,6,7,7,8,8,10,10,11,11,12,12,13,13,14,14,15,15,16,16,17,17,18,18,20,20,21,21,22,22,23,23,24,24,25,25,26,26,27,27,29,29,30,30,31,31,32,32,33,33,34,34,38,38,40,40,41,41,42,42,43,43,44,44,45,45,47,47,51,51,53,53,54,54,55,55,56,56,57,57,58,58,59,59,60,60,61,61,62,62,63,63,64,64,65,65,67,67,69,69,71,71,75,75,76,76,77,77,79,79,81,81,83,83,84,84,85,85,89,89,93,93,94,94,95,95,96,96,97,97,98,98,99,99,101,101,103,103,104,104,105,105,106,106,111,111,113,113,119,119,123,123],"right_children":[2,4,6,8,10,12,14,16,18,-1,20,22,24,26,28,30,32,34,36,-1,38,40,42,44,46,48,50,52,-1,54,56,58,60,62,64,-1,-1,-1,66,-1,68,70,72,74,76,78,-1,80,-1,-1,-1,82,-1,84,86,88,90,92,94,96,98,100,102,104,106,108,-1,110,-1,112,-1,114,-1,-1,-1,116,118,120,-1,122,-1,124,-1,126,128,130,-1,-1,-1,132,-1,-1,-1,134,136,138,140,142,144,146,-1,148,-1,150,152,154,156,-1,-1,-1,-1,158,-1,160,-1,-1,-1,-1,-1,162,-1,-1,-1,164,-1,-1,-1,-1,-1,-1,-1,-1,-1,-1,-1,-1,-1,-1,-1,-1,-1,-1,-1,-1,-1,-1,-1,-1,-1,-1,-1,-1,-1,-1,-1,-1,-1,-1,-1,-1,-1,-1,-1,-1,-1],"split_conditions":[1E0,1E0,5.09946E2,1E0,1E0,8.517E1,8.873E1,7.433E1,1E0,2.0836717E-2,3.89456E2,4.05904E2,4.83005E2,1E0,1E0,1E0,1E0,1E0,4.62333E2,-0E0,1E0,3.40333E2,1E0,1E0,1E0,1E0,5.1701E2,1E0,-0E0,1E0,3.2644E2,1E0,1E0,1E0,1E0,-2.3417527E-2,-0E0,-0E0,1E0,4.5697945E-3,4.05351E2,1E0,1E0,3.60377E2,1E0,1E0,1.9141816E-3,1E0,-1.052171E-2,-0E0,2.4173856E-3,1E0,-0E0,1E0,1E0,1E0,4.149E1,6E0,1E0,1E0,5.4E1,1E0,1E0,1E0,4.75995E2,4.37E1,-0E0,3.4623E2,-0E0,1E0,1.3297548E-2,5.08591E2,-0E0,-0E0,1.166829E-2,4.05351E2,1E0,9.959E1,-0E0,1E0,-1.3762031E-2,1E0,-4.063897E-3,1E0,1E0,1E0,1.33938575E-2,5.6953686E-3,-0E0,1E0,-0E0,4.125264E-2,-0E0,1E0,9.278E1,1E0,1E0,1E0,1E0,1E0,-4.505846E-3,1E0,3.6139244E-3,2E0,1E0,1.0473E2,1E0,-0E0,-3.0237522E-2,-0E0,-4.6545076E-3,1E0,-1.1261214E-2,4.50545E2,-0E0,-0E0,-5.0241323E-3,3.6653958E-3,-0E0,1E0,-0E0,-7.025054E-2,-6.7912363E-3,5.15434E2,-0E0,1.848466E-2,-4.922473E-3,4.3753795E-3,-9.647913E-3,-9.972116E-4,-1.6722007E-2,-2.1076176E-2,-0E0,1.1966456E-2,-7.725286E-3,-3.5367634E-2,1.3166534E-3,2.935535E-2,-0E0,2.2308644E-2,2.0280886E-3,-1.6392773E-2,-0E0,-0E0,1.0948068E-2,2.7704554E-2,1.294492E-2,-7.7132666E-3,-0E0,1.1473115E-2,-0E0,-4.304888E-3,-0E0,4.2719604E-3,-0E0,-1.3572872E-2,-0E0,-6.323948E-2,-1.2953296E-2,-1.3240356E-2,-3.654655E-2,-2.3882732E-2,-0E0,-2.1797537E-3,-5.1493324E-2],"split_indices":[301,963,0,954,43,3,3,3,584,0,0,0,0,496,76,403,730,502,0,0,68,0,670,413,662,424,0,373,0,66,0,565,444,384,65,0,0,0,91,0,0,683,50,0,460,287,0,436,0,0,0,366,0,666,1023,516,3,1,33,433,1,441,627,7,0,3,0,0,0,64,0,0,0,0,0,0,8,3,0,10,0,168,0,319,998,390,0,0,0,646,0,0,0,18,3,546,496,109,231,460,0,169,0,1,5,3,37,0,0,0,0,179,0,0,0,0,0,0,0,180,0,0,0,0,0,0,0,0,0,0,0,0,0,0,0,0,0,0,0,0,0,0,0,0,0,0,0,0,0,0,0,0,0,0,0,0,0,0,0,0,0,0,0,0,0],"split_type":[0,0,0,0,0,0,0,0,0,0,0,0,0,0,0,0,0,0,0,0,0,0,0,0,0,0,0,0,0,0,0,0,0,0,0,0,0,0,0,0,0,0,0,0,0,0,0,0,0,0,0,0,0,0,0,0,0,0,0,0,0,0,0,0,0,0,0,0,0,0,0,0,0,0,0,0,0,0,0,0,0,0,0,0,0,0,0,0,0,0,0,0,0,0,0,0,0,0,0,0,0,0,0,0,0,0,0,0,0,0,0,0,0,0,0,0,0,0,0,0,0,0,0,0,0,0,0,0,0,0,0,0,0,0,0,0,0,0,0,0,0,0,0,0,0,0,0,0,0,0,0,0,0,0,0,0,0,0,0,0,0,0,0,0,0],"sum_hessian":[1.676E3,1.253E3,4.23E2,1.224E3,2.9E1,1.42E2,2.81E2,1.108E3,1.16E2,4E0,2.5E1,1.09E2,3.3E1,2.32E2,4.9E1,3.77E2,7.31E2,1.06E2,1E1,1E0,2.4E1,8E0,1.01E2,1.5E1,1.8E1,2.3E2,2E0,4.7E1,2E0,3.64E2,1.3E1,5.5E1,6.76E2,6.8E1,3.8E1,9E0,1E0,1E0,2.3E1,3E0,5E0,5.4E1,4.7E1,8E0,7E0,1.6E1,2E0,2.28E2,2E0,1E0,1E0,4.6E1,1E0,3.37E2,2.7E1,3E0,1E1,1.1E1,4.4E1,6.53E2,2.3E1,5.8E1,1E1,1.2E1,2.6E1,2.2E1,1E0,4E0,1E0,5.2E1,2E0,4.4E1,3E0,1E0,7E0,4E0,3E0,1.4E1,2E0,2.26E2,2E0,4.4E1,2E0,3.1E2,2.7E1,2.3E1,4E0,2E0,1E0,9E0,1E0,9E0,2E0,3.1E1,1.3E1,4.18E2,2.35E2,4E0,1.9E1,5.4E1,4E0,8E0,2E0,8E0,4E0,4E0,2.2E1,1E0,2.1E1,1E0,3E0,4.9E1,3E0,4.2E1,2E0,1E0,3E0,2E0,1E0,1.3E1,1E0,2.25E2,1E0,4.3E1,1E0,3E2,1E1,1.8E1,9E0,1.9E1,4E0,8E0,1E0,2.1E1,1E1,9E0,4E0,4.15E2,3E0,2.28E2,7E0,3E0,1E0,2E0,1.7E1,1.3E1,4.1E1,7E0,1E0,5E0,3E0,3E0,1E0,3E0,1E0,1.7E1,5E0,4.6E1,3E0,1.1E1,3.1E1,1.2E1,1E0,1E0,4.2E1],"tree_param":{"num_deleted":"0","num_feature":"1028","num_nodes":"165","size_leaf_vector":"1"}},{"base_weights":[-1.49814375E-2,5.9111875E-1,-1.783283E0,6.2555397E-1,-6.57474E-1,3.1685948E-1,-1.8677988E0,-8.4532864E-2,6.7294025E-1,1.8034905E-2,-8.820365E-1,5.442968E-1,-1.176589E-2,-1.4240042E0,-2.1402106E0,1.0903356E0,-3.4267274E-1,7.188075E-1,3.3559736E-2,-9.1842467E-1,-0E0,1.9485112E-2,-0E0,-8.587089E-1,-1.661617E0,-2.1487947E0,-0E0,1.1878817E0,-0E0,-5.287135E-1,3.7486345E-1,4.5453227E-1,8.485817E-1,2.8420797E-1,-2.3867692E-1,-0E0,-9.542368E-1,8.704714E-3,-9.249451E-1,-1.7347066E0,-5.1916176E-1,-2.1654747E0,-1.1058511E-2,3.7594784E-2,-0E0,9.069419E-2,-6.8860805E-1,4.917564E-1,-1.147415E-3,5.4691744E-1,1.3257311E-1,8.7168723E-1,1.8272015E-1,3.5015914E-1,-8.358649E-2,-2.990891E-1,5.3903745E-3,-9.8727787E-1,-0E0,-1.0358707E0,-7.2525144E-3,-1.8130419E0,-5.8574766E-1,-1.7021663E-2,-0E0,-2.1735837E0,-0E0,2.4452841E-1,-6.427154E-3,-0E0,-8.202619E-1,1.5902467E-2,-0E0,5.990714E-1,-2.8259483E-1,-2.4529922E-1,3.7689313E-1,9.55429E-1,7.0070046E-1,2.9026E-1,-1.3672918E-2,-0E0,3.7639156E-1,-3.0445135E-3,-0E0,-3.521822E-1,6.0342263E-2,-1.0152841E0,-0E0,-1.1198272E0,-3.3544224E-2,7.507743E-2,-1.0835621E-2,-1.8603411E0,-1.0806064E-1,-0E0,-2.8389405E-2,-2.1810007E0,-0E0,1.0893696E-2,-0E0,1.3422909E-2,-8.016174E-3,-2.7395427E-2,6.332588E-4,1.8712925E-2,-0E0,7.347847E-3,-1.5631571E-2,-5.898399E-4,-1.6528443E-2,5.560984E-3,3.0348267E-2,2.8860906E-2,-4.148215E-3,2.1517647E-2,-0E0,-3.5989496E-3,1.0145494E-2,1.1692545E-2,-0E0,-1.1668461E-2,-0E0,-0E0,2.7951603E-3,-0E0,-3.1210678E-2,-3.4989353E-2,2.3955416E-3,-3.969271E-3,-0E0,5.600683E-3,-0E0,-5.6378957E-2,-0E0,-0E0,-5.87714E-3,-2.7615426E-3,5.793557E-4,-6.586864E-2,-1.5116769E-2],"categories":[],"categories_nodes":[],"categories_segments":[],"categories_sizes":[],"default_left":[0,0,0,0,0,0,0,0,0,0,0,0,0,0,0,0,0,0,0,0,0,0,0,0,0,0,0,0,0,0,0,0,0,0,0,0,0,0,0,0,0,0,0,0,0,0,0,0,0,0,0,0,0,0,0,0,0,0,0,0,0,0,0,0,0,0,0,0,0,0,0,0,0,0,0,0,0,0,0,0,0,0,0,0,0,0,0,0,0,0,0,0,0,0,0,0,0,0,0,0,0,0,0,0,0,0,0,0,0,0,0,0,0,0,0,0,0,0,0,0,0,0,0,0,0,0,0,0,0,0,0,0,0,0,0,0,0,0,0,0,0],"id":1,"left_children":[1,3,5,7,9,11,13,15,17,-1,19,21,-1,23,25,27,29,31,33,35,-1,-1,-1,37,39,41,-1,43,-1,45,47,49,51,53,55,-1,57,-1,59,61,63,65,-1,-1,-1,67,69,71,-1,73,75,77,79,81,83,85,-1,87,-1,89,91,93,95,-1,-1,97,-1,99,-1,101,103,-1,-1,105,107,109,111,113,115,117,-1,-1,119,-1,-1,121,123,125,-1,127,129,131,-1,133,135,137,-1,139,-1,-1,-1,-1,-1,-1,-1,-1,-1,-1,-1,-1,-1,-1,-1,-1,-1,-1,-1,-1,-1,-1,-1,-1,-1,-1,-1,-1,-1,-1,-1,-1,-1,-1,-1,-1,-1,-1,-1,-1,-1,-1,-1],"loss_changes":[1.7925568E3,5.433603E1,7.7749756E1,4.122348E1,1.0810789E1,3.405776E0,4.181018E1,2.3726015E1,3.294928E1,0E0,1.1219578E0,6.183758E-1,0E0,1.7780548E1,4.587036E0,1.7001762E0,9.150229E0,3.496521E1,5.5490484E0,1.0342884E0,0E0,0E0,0E0,4.887272E0,6.4240417E0,4.5301514E0,0E0,5.010891E-1,0E0,5.6729774E0,9.404274E-1,1.0074448E1,1.0046875E1,1.2348523E0,1.1275897E0,0E0,8.214741E-1,0E0,4.6549835E0,6.0370483E0,2.020812E-1,3.9311523E0,0E0,0E0,0E0,6.828287E-1,3.832079E0,1.889658E-1,0E0,1.2350716E1,7.9134073E0,7.612732E0,2.035715E0,2.9923677E-1,1.2886845E-2,8.56339E-1,0E0,4.83469E-1,0E0,3.1350212E0,4.3040454E-1,6.355591E0,1.9420533E0,0E0,0E0,3.156372E0,0E0,4.569263E-1,0E0,1.3005681E0,3.2990437E0,0E0,0E0,3.929741E0,2.531765E0,1.9689071E0,5.347868E0,3.934021E0,2.4060822E0,6.81731E-1,0E0,0E0,2.0634079E-1,0E0,0E0,5.693991E-1,1.6518153E-2,2.5766754E-1,0E0,3.0159187E0,8.077714E-2,9.995543E-2,0E0,3.061432E0,9.512905E-2,2.7285134E-2,0E0,2.4204102E0,0E0,0E0,0E0,0E0,0E0,0E0,0E0,0E0,0E0,0E0,0E0,0E0,0E0,0E0,0E0,0E0,0E0,0E0,0E0,0E0,0E0,0E0,0E0,0E0,0E0,0E0,0E0,0E0,0E0,0E0,0E0,0E0,0E0,0E0,0E0,0E0,0E0,0E0,0E0,0E0,0E0,0E0,0E0],"parents":[2147483647,0,0,1,1,2,2,3,3,4,4,5,5,6,6,7,7,8,8,10,10,11,11,13,13,14,14,15,15,16,16,17,17,18,18,19,19,23,23,24,24,25,25,27,27,29,29,30,30,31,31,32,32,33,33,34,34,36,36,38,38,39,39,40,40,41,41,45,45,46,46,47,47,49,49,50,50,51,51,52,52,53,53,54,54,55,55,57,57,59,59,60,60,61,61,62,62,65,65,67,67,69,69,70,70,73,73,74,74,75,75,76,76,77,77,78,78,79,79,82,82,85,85,86,86,87,87,89,89,90,90,91,91,93,93,94,94,95,95,97,97],"right_children":[2,4,6,8,10,12,14,16,18,-1,20,22,-1,24,26,28,30,32,34,36,-1,-1,-1,38,40,42,-1,44,-1,46,48,50,52,54,56,-1,58,-1,60,62,64,66,-1,-1,-1,68,70,72,-1,74,76,78,80,82,84,86,-1,88,-1,90,92,94,96,-1,-1,98,-1,100,-1,102,104,-1,-1,106,108,110,112,114,116,118,-1,-1,120,-1,-1,122,124,126,-1,128,130,132,-1,134,136,138,-1,140,-1,-1,-1,-1,-1,-1,-1,-1,-1,-1,-1,-1,-1,-1,-1,-1,-1,-1,-1,-1,-1,-1,-1,-1,-1,-1,-1,-1,-1,-1,-1,-1,-1,-1,-1,-1,-1,-1,-1,-1,-1,-1,-1],"split_conditions":[1E0,1E0,1E0,1E0,1E0,1E0,1E0,1E0,1E0,1.8034905E-2,1E0,1E0,-1.176589E-2,1E0,1E0,1E0,1E0,7.433E1,1E0,1E0,-0E0,1.9485112E-2,-0E0,1E0,1E0,1E0,-0E0,6E0,-0E0,1E0,7E0,1E0,1E0,1E0,1E0,-0E0,1E0,8.704714E-3,1.0523E2,1E0,7E0,1E0,-1.1058511E-2,3.7594784E-2,-0E0,1E0,1E0,1E0,-1.147415E-3,1E0,1E0,1E0,1E0,1E0,1E0,1E0,5.3903745E-3,1E0,-0E0,1E0,1E0,1E0,1E0,-1.7021663E-2,-0E0,1E0,-0E0,1E0,-6.427154E-3,1E0,1E0,1.5902467E-2,-0E0,1E0,1E0,1E0,1E0,1E0,1E0,8.243E1,-1.3672918E-2,-0E0,1E0,-3.0445135E-3,-0E0,1E0,4E0,5E0,-0E0,1E0,1E0,7E0,-1.0835621E-2,1E0,1E0,1E0,-2.8389405E-2,1E0,-0E0,1.0893696E-2,-0E0,1.3422909E-2,-8.016174E-3,-2.7395427E-2,6.332588E-4,1.8712925E-2,-0E0,7.347847E-3,-1.5631571E-2,-5.898399E-4,-1.6528443E-2,5.560984E-3,3.0348267E-2,2.8860906E-2,-4.148215E-3,2.1517647E-2,-0E0,-3.5989496E-3,1.0145494E-2,1.1692545E-2,-0E0,-1.1668461E-2,-0E0,-0E0,2.7951603E-3,-0E0,-3.1210678E-2,-3.4989353E-2,2.3955416E-3,-3.969271E-3,-0E0,5.600683E-3,-0E0,-5.6378957E-2,-0E0,-0E0,-5.87714E-3,-2.7615426E-3,5.793557E-4,-6.586864E-2,-1.5116769E-2],"split_indices":[301,963,640,730,43,14,565,354,509,0,94,83,0,730,373,120,515,3,397,68,0,0,0,84,846,64,0,1,0,84,2,722,444,553,383,0,91,0,3,46,2,597,0,0,0,385,1023,189,0,319,654,433,684,202,12,743,0,47,0,395,59,484,127,0,0,263,0,291,0,642,264,0,0,951,118,813,597,546,440,3,0,0,545,0,0,313,2,2,0,214,130,2,0,827,55,743,0,50,0,0,0,0,0,0,0,0,0,0,0,0,0,0,0,0,0,0,0,0,0,0,0,0,0,0,0,0,0,0,0,0,0,0,0,0,0,0,0,0,0,0,0],"split_type":[0,0,0,0,0,0,0,0,0,0,0,0,0,0,0,0,0,0,0,0,0,0,0,0,0,0,0,0,0,0,0,0,0,0,0,0,0,0,0,0,0,0,0,0,0,0,0,0,0,0,0,0,0,0,0,0,0,0,0,0,0,0,0,0,0,0,0,0,0,0,0,0,0,0,0,0,0,0,0,0,0,0,0,0,0,0,0,0,0,0,0,0,0,0,0,0,0,0,0,0,0,0,0,0,0,0,0,0,0,0,0,0,0,0,0,0,0,0,0,0,0,0,0,0,0,0,0,0,0,0,0,0,0,0,0,0,0,0,0,0,0],"sum_hessian":[1.668E3,1.243E3,4.25E2,1.211E3,3.2E1,1.6E1,4.09E2,7.5E1,1.136E3,4E0,2.8E1,1.3E1,3E0,1.61E2,2.48E2,1.2E1,6.3E1,1.059E3,7.7E1,2.7E1,1E0,1E1,3E0,5.1E1,1.1E2,2.47E2,1E0,1.1E1,1E0,5.1E1,1.2E1,3.53E2,7.06E2,4.1E1,3.6E1,1E0,2.6E1,2E0,4.9E1,1.02E2,8E0,2.44E2,3E0,1E1,1E0,1E1,4.1E1,1E1,2E0,2.72E2,8.1E1,6.81E2,2.5E1,3.6E1,5E0,3.3E1,3E0,2.5E1,1E0,4.3E1,6E0,9.4E1,8E0,7E0,1E0,2.43E2,1E0,8E0,2E0,7E0,3.4E1,9E0,1E0,2.57E2,1.5E1,3.1E1,5E1,4.49E2,2.32E2,2.3E1,2E0,3E0,3.3E1,4E0,1E0,3E1,3E0,2.4E1,1E0,3.9E1,4E0,5E0,1E0,9.1E1,3E0,4E0,4E0,2.42E2,1E0,6E0,2E0,2E0,5E0,3.1E1,3E0,2.47E2,1E1,4E0,1.1E1,2E1,1.1E1,4.1E1,9E0,4.47E2,2E0,2.26E2,6E0,1E0,2.2E1,3.2E1,1E0,2.8E1,2E0,1E0,2E0,1E0,2.3E1,3.8E1,1E0,3E0,1E0,2E0,3E0,9E1,1E0,1E0,2E0,1E0,3E0,2.39E2,3E0],"tree_param":{"num_deleted":"0","num_feature":"1028","num_nodes":"141","size_leaf_vector":"1"}},{"base_weights":[-5.746878E-3,5.710539E-1,-1.75985E0,-1.1430606E-1,6.155719E-1,-1.121426E0,-2.087885E0,1.6878733E-1,-9.0910625E-1,-2.8176293E-2,6.607602E-1,-1.3566002E0,-2.9722083E-1,-2.1924334E0,-1.5069361E0,5.016785E-1,-4.417047E-1,-9.5877737E-1,-0E0,9.893846E-1,-2.5074446E-1,7.0054203E-1,6.912323E-2,3.7057586E-2,-1.4559244E0,1.5692018E-1,-6.387358E-1,2.1983625E-3,-2.205611E0,-1.5356382E0,-0E0,5.7029843E-1,-7.766835E-3,-6.768941E-1,1.5064399E-1,-9.9560153E-1,-0E0,1.0148263E-1,3.8227465E-2,-8.625279E-2,-1.359246E0,4.8997343E-1,7.948851E-1,2.9761696E-1,-2.1947E-1,1.5962788E-1,-2.1290767E-3,-1.1313801E0,-1.8520743E0,3.2430285E-1,-1.1471379E-2,-7.444959E-1,5.7992935E-2,-2.2117376E0,-3.5775017E-3,-1.565191E0,-0E0,6.1252E-1,-0E0,-0E0,-2.3974234E-2,-0E0,9.875425E-3,-0E0,-3.0879904E-2,-0E0,7.833981E-3,4.789703E-1,-5.0356656E-1,-4.114437E-4,-4.4283528E-2,5.139526E-1,-1.5695775E-2,8.1682837E-1,1.144376E-1,3.374201E-1,-0E0,-2.609944E-1,2.3009419E-3,5.856544E-3,-0E0,-1.2002914E0,-0E0,-1.945926E0,-5.4134685E-1,3.557968E-1,-0E0,-8.6917645E-1,-0E0,-0E0,2.3715852E-3,-2.2177336E0,-3.9861347E-3,-1.6136787E0,-3.726933E-3,7.24455E-1,1.3779144E-1,1.5103387E-3,-0E0,-1.0537778E-1,6.519463E-1,4.812932E-3,-6.670188E-1,5.4691535E-1,-1.9148356E-1,9.002815E-1,6.7141056E-1,-3.6203182E-1,2.6348242E-1,3.581443E-1,-0E0,-9.307754E-4,2.0152377E-3,-0E0,-3.2872343E-1,5.621354E-3,-1.2392987E0,-2.8832334E-1,5.201542E-3,-6.001152E-2,-1.0326764E-2,-0E0,-1.7801287E-2,-0E0,1.17336875E-2,-9.4055116E-1,-0E0,-2.2227592E0,-6.221857E-3,-1.4992689E-3,-1.6360916E0,2.402209E-2,-0E0,-0E0,4.91425E-3,-5.3503597E-3,-0E0,2.142102E-2,-0E0,1.0486596E-2,-3.1878133E-3,-2.199595E-2,6.198308E-3,1.7839072E-2,-0E0,-2.8231143E-5,-1.7700147E-2,2.7563542E-2,8.470535E-3,2.0575047E-2,-0E0,-1.5912037E-2,-0E0,1.1781693E-2,-0E0,1.1129026E-2,-0E0,-0E0,2.5565135E-3,-1.2023981E-2,-3.8586883E-4,-3.9503753E-2,-6.811562E-3,-0E0,-1.02192685E-2,-2.9266639E-2,-0E0,-6.683283E-2,-6.373429E-3,-4.973164E-2,-2.2764301E-3],"categories":[],"categories_nodes":[],"categories_segments":[],"categories_sizes":[],"default_left":[0,0,0,0,0,0,0,0,0,0,0,0,0,0,0,0,0,0,0,0,0,0,0,0,0,0,0,0,0,0,0,0,0,0,0,0,0,0,0,0,0,0,0,0,0,0,0,0,0,0,0,0,0,0,0,0,0,0,0,0,0,0,0,0,0,0,0,0,0,0,0,0,0,0,0,0,0,0,0,0,0,0,0,0,0,0,0,0,0,0,0,0,0,0,0,0,0,0,0,0,0,0,0,0,0,0,0,0,0,0,0,0,0,0,0,0,0,0,0,0,0,0,0,0,0,0,0,0,0,0,0,0,0,0,0,0,0,0,0,0,0,0,0,0,0,0,0,0,0,0,0,0,0,0,0,0,0,0,0,0,0,0,0,0,0,0,0,0,0,0,0],"id":2,"left_children":[1,3,5,7,9,11,13,15,17,19,21,23,25,27,29,31,33,35,-1,37,39,41,43,45,47,49,51,-1,53,55,-1,57,-1,59,61,63,-1,65,-1,67,69,71,73,75,77,79,-1,81,83,85,-1,87,89,91,-1,93,-1,95,-1,97,-1,-1,-1,-1,-1,-1,-1,99,101,-1,-1,103,-1,105,107,109,111,113,-1,-1,-1,115,117,119,121,123,-1,125,-1,-1,-1,127,-1,129,-1,131,133,-1,-1,135,137,139,141,143,145,147,149,151,153,155,-1,-1,-1,157,159,-1,161,163,-1,-1,-1,-1,-1,-1,-1,165,-1,167,-1,-1,169,-1,-1,-1,-1,-1,-1,-1,-1,-1,-1,-1,-1,-1,-1,-1,-1,-1,-1,-1,-1,-1,-1,-1,-1,-1,-1,-1,-1,-1,-1,-1,-1,-1,-1,-1,-1,-1,-1,-1,-1],"loss_changes":[1.6760687E3,3.8407898E1,7.9576904E1,1.8002258E1,3.4417816E1,2.6278442E1,7.8201904E0,1.22603655E1,1.0291214E0,1.7792027E1,2.529065E1,1.6182404E1,5.869726E0,8.017578E0,1.8335876E0,2.4864225E0,3.3926625E0,4.4814682E-1,0E0,2.5945482E0,1.1077166E1,1.8940979E1,4.9175153E0,1.8615456E-1,7.688568E0,1.6632855E0,1.9770117E0,0E0,1.1318359E0,1.8571548E0,0E0,1.097436E0,0E0,1.6098013E0,2.7458477E-1,2.3814392E-1,0E0,2.1096885E-1,0E0,1.4647207E1,4.726305E-1,8.4047165E0,9.844025E0,4.9234962E-1,5.257262E-1,5.029328E-2,0E0,4.359947E0,1.9391022E0,1.73275E-1,0E0,1.5562735E0,5.2953362E-3,9.7766113E-1,0E0,1.9440842E0,0E0,1.2290859E0,0E0,7.603744E-3,0E0,0E0,0E0,0E0,0E0,0E0,0E0,3.0387182E0,3.328971E0,0E0,0E0,7.7816544E0,0E0,6.2574463E0,1.916886E0,2.7682114E-1,1.9312896E-2,6.579349E-1,0E0,0E0,0E0,4.1840363E0,4.5277047E-1,8.523407E-1,2.1383762E-3,3.7060857E-2,0E0,1.1820631E0,0E0,0E0,0E0,7.543945E-2,0E0,5.355072E-1,0E0,1.217741E0,5.163376E-2,0E0,0E0,1.13111004E-1,7.6133347E-1,5.788485E-1,2.1851254E0,8.128777E0,8.424457E-1,3.728485E0,2.6991043E0,6.202252E-1,7.0135725E-1,1.8961906E-1,0E0,0E0,0E0,2.9047828E-2,3.5200834E-1,0E0,3.1797485E0,1.55901015E-2,0E0,0E0,0E0,0E0,0E0,0E0,0E0,5.43499E-2,0E0,2.5390625E-2,0E0,0E0,3.3272552E-1,0E0,0E0,0E0,0E0,0E0,0E0,0E0,0E0,0E0,0E0,0E0,0E0,0E0,0E0,0E0,0E0,0E0,0E0,0E0,0E0,0E0,0E0,0E0,0E0,0E0,0E0,0E0,0E0,0E0,0E0,0E0,0E0,0E0,0E0,0E0,0E0,0E0,0E0,0E0,0E0],"parents":[2147483647,0,0,1,1,2,2,3,3,4,4,5,5,6,6,7,7,8,8,9,9,10,10,11,11,12,12,13,13,14,14,15,15,16,16,17,17,19,19,20,20,21,21,22,22,23,23,24,24,25,25,26,26,28,28,29,29,31,31,33,33,34,34,35,35,37,37,39,39,40,40,41,41,42,42,43,43,44,44,45,45,47,47,48,48,49,49,51,51,52,52,53,53,55,55,57,57,59,59,67,67,68,68,71,71,73,73,74,74,75,75,76,76,77,77,81,81,82,82,83,83,84,84,85,85,87,87,91,91,93,93,95,95,96,96,99,99,100,100,101,101,102,102,103,103,104,104,105,105,106,106,107,107,108,108,109,109,113,113,114,114,116,116,117,117,125,125,127,127,130,130],"right_children":[2,4,6,8,10,12,14,16,18,20,22,24,26,28,30,32,34,36,-1,38,40,42,44,46,48,50,52,-1,54,56,-1,58,-1,60,62,64,-1,66,-1,68,70,72,74,76,78,80,-1,82,84,86,-1,88,90,92,-1,94,-1,96,-1,98,-1,-1,-1,-1,-1,-1,-1,100,102,-1,-1,104,-1,106,108,110,112,114,-1,-1,-1,116,118,120,122,124,-1,126,-1,-1,-1,128,-1,130,-1,132,134,-1,-1,136,138,140,142,144,146,148,150,152,154,156,-1,-1,-1,158,160,-1,162,164,-1,-1,-1,-1,-1,-1,-1,166,-1,168,-1,-1,170,-1,-1,-1,-1,-1,-1,-1,-1,-1,-1,-1,-1,-1,-1,-1,-1,-1,-1,-1,-1,-1,-1,-1,-1,-1,-1,-1,-1,-1,-1,-1,-1,-1,-1,-1,-1,-1,-1,-1,-1],"split_conditions":[1E0,1E0,5.13006E2,1E0,1E0,8.517E1,8.873E1,1E0,1E0,1E0,1E0,4.05904E2,4.74917E2,1E0,1E0,1E0,1E0,1E0,-0E0,3.21311E2,1E0,7.433E1,4.82524E2,1E0,1E0,1E0,1E0,2.1983625E-3,1E0,1E0,-0E0,1E0,-7.766835E-3,3.29403E2,1E0,5E0,-0E0,1E0,3.8227465E-2,1E0,4.65403E2,5.57457E2,1E0,1E0,1E0,1E0,-2.1290767E-3,1E0,1E0,7E0,-1.1471379E-2,1E0,4.98344E2,1E0,-3.5775017E-3,1E0,-0E0,1E0,-0E0,2.92442E2,-2.3974234E-2,-0E0,9.875425E-3,-0E0,-3.0879904E-2,-0E0,7.833981E-3,5E0,1E0,-4.114437E-4,-4.4283528E-2,1E0,-1.5695775E-2,1E0,1E0,1E0,1E0,1E0,2.3009419E-3,5.856544E-3,-0E0,1E0,1E0,1E0,1E0,4.05351E2,-0E0,1E0,-0E0,-0E0,2.3715852E-3,1E0,-3.9861347E-3,5.15434E2,-3.726933E-3,1E0,2.80397E2,1.5103387E-3,-0E0,4.45969E2,1E0,6E0,1E0,1E0,1E0,1E0,1E0,1E0,4.10796E3,1E0,-0E0,-9.307754E-4,2.0152377E-3,4.92613E2,1E0,5.621354E-3,1E0,4.50545E2,5.201542E-3,-6.001152E-2,-1.0326764E-2,-0E0,-1.7801287E-2,-0E0,1.17336875E-2,1E0,-0E0,7E0,-6.221857E-3,-1.4992689E-3,1E0,2.402209E-2,-0E0,-0E0,4.91425E-3,-5.3503597E-3,-0E0,2.142102E-2,-0E0,1.0486596E-2,-3.1878133E-3,-2.199595E-2,6.198308E-3,1.7839072E-2,-0E0,-2.8231143E-5,-1.7700147E-2,2.7563542E-2,8.470535E-3,2.0575047E-2,-0E0,-1.5912037E-2,-0E0,1.1781693E-2,-0E0,1.1129026E-2,-0E0,-0E0,2.5565135E-3,-1.2023981E-2,-3.8586883E-4,-3.9503753E-2,-6.811562E-3,-0E0,-1.02192685E-2,-2.9266639E-2,-0E0,-6.683283E-2,-6.373429E-3,-4.973164E-2,-2.2764301E-3],"split_indices":[301,1,0,790,730,3,3,813,239,456,509,0,0,49,507,409,835,100,0,0,863,3,0,6,123,182,57,0,436,168,0,350,0,0,26,2,0,305,0,18,0,0,444,553,375,5,0,19,393,2,0,589,0,36,0,427,0,129,0,0,0,0,0,0,0,0,0,2,84,0,0,676,0,365,939,734,180,240,0,0,0,84,179,683,127,0,0,369,0,0,0,103,0,0,0,57,0,0,0,0,495,2,17,666,390,321,738,46,0,545,0,0,0,0,37,0,255,0,0,0,0,0,0,0,0,144,0,2,0,0,338,0,0,0,0,0,0,0,0,0,0,0,0,0,0,0,0,0,0,0,0,0,0,0,0,0,0,0,0,0,0,0,0,0,0,0,0,0,0,0,0],"split_type":[0,0,0,0,0,0,0,0,0,0,0,0,0,0,0,0,0,0,0,0,0,0,0,0,0,0,0,0,0,0,0,0,0,0,0,0,0,0,0,0,0,0,0,0,0,0,0,0,0,0,0,0,0,0,0,0,0,0,0,0,0,0,0,0,0,0,0,0,0,0,0,0,0,0,0,0,0,0,0,0,0,0,0,0,0,0,0,0,0,0,0,0,0,0,0,0,0,0,0,0,0,0,0,0,0,0,0,0,0,0,0,0,0,0,0,0,0,0,0,0,0,0,0,0,0,0,0,0,0,0,0,0,0,0,0,0,0,0,0,0,0,0,0,0,0,0,0,0,0,0,0,0,0,0,0,0,0,0,0,0,0,0,0,0,0,0,0,0,0,0,0],"sum_hessian":[1.652E3,1.244E3,4.08E2,7.5E1,1.169E3,1.42E2,2.66E2,5.6E1,1.9E1,7.6E1,1.093E3,1.09E2,3.3E1,2.2E2,4.6E1,3.7E1,1.9E1,1.8E1,1E0,1.2E1,6.4E1,1.023E3,7E1,7E0,1.02E2,1.4E1,1.9E1,1E0,2.19E2,4.5E1,1E0,3.5E1,2E0,1.4E1,5E0,1.7E1,1E0,4E0,8E0,5.8E1,6E0,3.22E2,7.01E2,4E1,3E1,5E0,2E0,6.1E1,4.1E1,1.2E1,2E0,1.7E1,2E0,2.18E2,1E0,4.4E1,1E0,3.3E1,2E0,2E0,1.2E1,3E0,2E0,1E0,1.6E1,2E0,2E0,2.4E1,3.4E1,1E0,5E0,3.16E2,6E0,6.78E2,2.3E1,3.5E1,5E0,2.8E1,2E0,4E0,1E0,5.7E1,4E0,3.7E1,4E0,1.1E1,1E0,1.4E1,3E0,1E0,1E0,2.17E2,1E0,4.2E1,2E0,2.5E1,8E0,1E0,1E0,5E0,1.9E1,8E0,2.6E1,3.03E2,1.3E1,4.22E2,2.56E2,4E0,1.9E1,3.3E1,2E0,4E0,1E0,5E0,2.3E1,1E0,5.6E1,2E0,2E0,3.5E1,2E0,1E0,3E0,2E0,9E0,1.3E1,1E0,2.16E2,1E0,1E0,4.1E1,2.2E1,3E0,1E0,7E0,4E0,1E0,1.7E1,2E0,2E0,6E0,2.5E1,1E0,2.79E2,2.4E1,1.1E1,2E0,4.08E2,1.4E1,2.51E2,5E0,3E0,1E0,1.2E1,7E0,3.2E1,1E0,3E0,2E0,1.7E1,6E0,5.1E1,5E0,1E0,1E0,1.2E1,1E0,2.15E2,1E0,4E1,1E0],"tree_param":{"num_deleted":"0","num_feature":"1028","num_nodes":"171","size_leaf_vector":"1"}},{"base_weights":[8.193957E-3,5.7858396E-1,-1.577683E0,6.170452E-1,-4.2311722E-1,1.3489072E-1,-1.7558641E0,6.652839E-1,1.14323474E-1,9.388477E-3,-9.8330414E-1,4.268724E-1,-3.1196956E-2,-1.1720711E0,-1.9949502E0,6.895698E-1,1.39694E-1,8.7107354E-1,-1.0921272E-3,3.2764277E-1,-2.3900759E-1,-0E0,-1.0366851E0,5.385972E-1,-1.2108159E-2,-1.549162E0,-7.3694277E-1,-2.0291097E0,-7.2657484E-1,7.0622957E-1,-2.9980794E-2,2.65459E-1,-3.916107E-1,3.079727E-2,-0E0,1.5339245E-1,-5.912411E-1,1.8325197E-2,-1.7023341E-1,-2.932943E-1,7.52933E-4,-3.3092664E-3,-3.2987442E-2,6.066688E-1,-0E0,-1.661333E0,-2.8613204E-1,-8.5370064E-1,-1.789584E-1,-2.0369673E0,-0E0,-2.411779E-2,-0E0,2.0499046E-1,7.325701E-1,1.4910677E-2,-2.364339E-1,3.3467206E-1,-3.0827183E-1,-1.4539832E-2,-0E0,3.0496505E-1,-1.4815113E-1,-6.5175563E-1,-0E0,-5.7556317E-3,-0E0,-3.5348943E-1,-0E0,6.473412E-1,-1.1350369E-3,-2.451405E-3,-0E0,-1.7090144E0,5.56514E-3,-3.2626706E-1,-0E0,-9.4470006E-1,-0E0,8.7936096E-2,-4.0233004E-1,-2.0477319E0,-4.683051E-3,-2.4447165E-1,4.900815E-1,8.4668285E-1,6.4465225E-1,-3.2980192E-1,7.5590946E-2,3.944211E-1,-0E0,-0E0,-1.3229145E-2,3.3603042E-1,-8.104346E-3,7.496347E-3,-2.6596358E-1,-0E0,-6.821769E-1,-4.0531936E-1,-0E0,7.57199E-1,1.6718432E-1,-1.5111168E-1,-1.7807087E0,-0E0,-1.2119935E-2,-9.978432E-1,-0E0,-2.7338546E-3,2.1158373E-3,-0E0,1.616563E-1,-0E0,-1.3480308E-2,-2.0546544E0,-0E0,5.50349E-3,-1.5058847E-2,1.7681945E-2,-1.34796705E-2,2.5548423E-2,-6.9486545E-3,1.9927032E-2,3.2130792E-3,-1.066555E-2,-0E0,2.7424155E-3,-0E0,1.3456158E-2,-0E0,-2.8417417E-4,2.8315901E-3,1.1839357E-2,-0E0,-9.375901E-3,-0E0,-6.706184E-4,-2.1918314E-2,-1.44276265E-2,-0E0,2.3281762E-2,-0E0,5.4596514E-3,-0E0,-1.3650649E-2,8.2129956E-4,-5.5274624E-2,-1.0148389E-2,-3.1565048E-2,-1.9231497E-3,5.4811975E-3,-0E0,-6.1846573E-2,-0E0],"categories":[],"categories_nodes":[],"categories_segments":[],"categories_sizes":[],"default_left":[0,0,0,0,0,0,0,0,0,0,0,0,0,0,0,0,0,0,0,0,0,0,0,0,0,0,0,0,0,0,0,0,0,0,0,0,0,0,0,0,0,0,0,0,0,0,0,0,0,0,0,0,0,0,0,0,0,0,0,0,0,0,0,0,0,0,0,0,0,0,0,0,0,0,0,0,0,0,0,0,0,0,0,0,0,0,0,0,0,0,0,0,0,0,0,0,0,0,0,0,0,0,0,0,0,0,0,0,0,0,0,0,0,0,0,0,0,0,0,0,0,0,0,0,0,0,0,0,0,0,0,0,0,0,0,0,0,0,0,0,0,0,0,0,0,0,0,0,0,0,0,0,0,0,0],"id":3,"left_children":[1,3,5,7,9,11,13,15,17,19,21,23,-1,25,27,29,31,33,35,37,39,-1,41,43,-1,45,47,49,51,53,55,57,59,-1,-1,61,63,-1,65,67,-1,-1,-1,69,71,73,75,77,79,81,-1,-1,-1,83,85,-1,87,89,91,-1,-1,93,95,97,-1,-1,-1,99,-1,101,-1,-1,-1,103,-1,105,-1,107,109,111,113,115,-1,117,119,121,123,125,127,129,131,-1,-1,133,-1,-1,135,-1,137,139,-1,141,143,145,147,-1,-1,149,-1,-1,-1,-1,151,-1,-1,153,-1,-1,-1,-1,-1,-1,-1,-1,-1,-1,-1,-1,-1,-1,-1,-1,-1,-1,-1,-1,-1,-1,-1,-1,-1,-1,-1,-1,-1,-1,-1,-1,-1,-1,-1,-1,-1,-1,-1],"loss_changes":[1.5390924E3,4.8854614E1,1.3860083E2,2.8728638E1,1.189277E1,1.567404E1,5.0687378E1,1.3433533E1,9.957037E0,2.414423E0,1.1896935E0,3.9353013E0,0E0,1.6919937E1,8.065186E0,1.2967407E1,3.619453E0,2.318613E0,9.152524E0,2.4022336E0,3.7821895E-1,0E0,3.1778145E-1,1.5465002E0,0E0,7.142761E0,3.2173615E0,4.7005615E0,6.559553E-1,1.2790283E1,2.8247688E0,1.9667661E0,3.455813E-1,0E0,0E0,3.6881113E0,7.3003626E-1,0E0,1.0164037E-2,3.340888E-1,0E0,0E0,0E0,1.1663561E0,2.6708383E-2,6.503296E0,9.0179086E-2,3.720375E0,1.0625887E0,3.8469238E0,0E0,0E0,0E0,7.409995E0,7.934387E0,0E0,7.596283E-1,6.9709015E-1,3.026658E-1,0E0,0E0,1.1613946E0,1.360173E0,3.0565262E-1,0E0,0E0,0E0,3.4699345E-1,0E0,8.6709404E-1,0E0,0E0,0E0,4.8623962E0,0E0,7.091993E-2,0E0,2.6540947E0,6.1418757E-2,1.0266726E-1,1.5845251E-1,3.5594482E0,0E0,2.7675045E0,3.8651457E0,2.9112244E0,5.3773346E0,1.732142E-1,4.8560165E-3,7.462959E-1,3.626322E-2,0E0,0E0,1.1368632E0,0E0,0E0,3.97295E-1,0E0,1.6609097E-1,3.414433E-1,0E0,6.282139E-2,1.340279E-2,5.099583E-1,2.4750977E0,0E0,0E0,1.4881592E0,0E0,0E0,0E0,0E0,1.0111943E-2,0E0,0E0,3.501831E0,0E0,0E0,0E0,0E0,0E0,0E0,0E0,0E0,0E0,0E0,0E0,0E0,0E0,0E0,0E0,0E0,0E0,0E0,0E0,0E0,0E0,0E0,0E0,0E0,0E0,0E0,0E0,0E0,0E0,0E0,0E0,0E0,0E0,0E0,0E0,0E0,0E0,0E0,0E0],"parents":[2147483647,0,0,1,1,2,2,3,3,4,4,5,5,6,6,7,7,8,8,9,9,10,10,11,11,13,13,14,14,15,15,16,16,17,17,18,18,19,19,20,20,22,22,23,23,25,25,26,26,27,27,28,28,29,29,30,30,31,31,32,32,35,35,36,36,38,38,39,39,43,43,44,44,45,45,46,46,47,47,48,48,49,49,53,53,54,54,56,56,57,57,58,58,61,61,62,62,63,63,67,67,69,69,73,73,75,75,77,77,78,78,79,79,80,80,81,81,83,83,84,84,85,85,86,86,87,87,88,88,89,89,90,90,93,93,96,96,98,98,99,99,101,101,102,102,103,103,104,104,107,107,112,112,115,115],"right_children":[2,4,6,8,10,12,14,16,18,20,22,24,-1,26,28,30,32,34,36,38,40,-1,42,44,-1,46,48,50,52,54,56,58,60,-1,-1,62,64,-1,66,68,-1,-1,-1,70,72,74,76,78,80,82,-1,-1,-1,84,86,-1,88,90,92,-1,-1,94,96,98,-1,-1,-1,100,-1,102,-1,-1,-1,104,-1,106,-1,108,110,112,114,116,-1,118,120,122,124,126,128,130,132,-1,-1,134,-1,-1,136,-1,138,140,-1,142,144,146,148,-1,-1,150,-1,-1,-1,-1,152,-1,-1,154,-1,-1,-1,-1,-1,-1,-1,-1,-1,-1,-1,-1,-1,-1,-1,-1,-1,-1,-1,-1,-1,-1,-1,-1,-1,-1,-1,-1,-1,-1,-1,-1,-1,-1,-1,-1,-1,-1,-1],"split_conditions":[1E0,1E0,1E0,1E0,1E0,1E0,5.09946E2,1E0,1E0,1E0,1E0,1E0,-3.1196956E-2,1E0,1E0,1E0,1E0,1E0,1E0,1E0,1E0,-0E0,4.02796E2,1E0,-1.2108159E-2,6E0,6E0,1E0,1E0,1E0,1E0,1E0,1E0,3.079727E-2,-0E0,1E0,1E0,1.8325197E-2,1E0,1E0,7.52933E-4,-3.3092664E-3,-3.2987442E-2,1E0,4.42423E2,1E0,1E0,1E0,1E0,1E0,-0E0,-2.411779E-2,-0E0,1E0,1E0,1.4910677E-2,1E0,1E0,3.698448E3,-1.4539832E-2,-0E0,1E0,7E0,3.78428E2,-0E0,-5.7556317E-3,-0E0,2E0,-0E0,1E0,-1.1350369E-3,-2.451405E-3,-0E0,4.24504E2,5.56514E-3,4.844E2,-0E0,1E0,1E0,4.43316E2,5.02971E2,1E0,-4.683051E-3,3.2644E2,1E0,1E0,1E0,1E0,1E0,1E0,1E0,-0E0,-1.3229145E-2,1E0,-8.104346E-3,7.496347E-3,1E0,-0E0,1E0,1E0,-0E0,1E0,5.05493E2,1E0,1E0,-0E0,-1.2119935E-2,1E0,-0E0,-2.7338546E-3,2.1158373E-3,-0E0,1E0,-0E0,-1.3480308E-2,1E0,-0E0,5.50349E-3,-1.5058847E-2,1.7681945E-2,-1.34796705E-2,2.5548423E-2,-6.9486545E-3,1.9927032E-2,3.2130792E-3,-1.066555E-2,-0E0,2.7424155E-3,-0E0,1.3456158E-2,-0E0,-2.8417417E-4,2.8315901E-3,1.1839357E-2,-0E0,-9.375901E-3,-0E0,-6.706184E-4,-2.1918314E-2,-1.44276265E-2,-0E0,2.3281762E-2,-0E0,5.4596514E-3,-0E0,-1.3650649E-2,8.2129956E-4,-5.5274624E-2,-1.0148389E-2,-3.1565048E-2,-1.9231497E-3,5.4811975E-3,-0E0,-6.1846573E-2,-0E0],"split_indices":[640,676,384,954,177,116,0,164,506,266,68,969,0,670,484,66,142,15,305,43,144,0,0,416,0,2,2,438,8,1,151,1021,432,0,0,240,188,0,91,241,0,0,0,58,0,320,57,255,730,647,0,0,0,654,811,0,930,835,0,0,0,115,2,0,0,0,0,1,0,597,0,0,0,0,0,0,0,54,37,0,0,76,0,0,755,601,729,310,428,595,15,0,0,553,0,0,313,0,703,12,0,169,0,8,64,0,0,365,0,0,0,0,16,0,0,50,0,0,0,0,0,0,0,0,0,0,0,0,0,0,0,0,0,0,0,0,0,0,0,0,0,0,0,0,0,0,0,0,0,0,0,0,0,0,0],"split_type":[0,0,0,0,0,0,0,0,0,0,0,0,0,0,0,0,0,0,0,0,0,0,0,0,0,0,0,0,0,0,0,0,0,0,0,0,0,0,0,0,0,0,0,0,0,0,0,0,0,0,0,0,0,0,0,0,0,0,0,0,0,0,0,0,0,0,0,0,0,0,0,0,0,0,0,0,0,0,0,0,0,0,0,0,0,0,0,0,0,0,0,0,0,0,0,0,0,0,0,0,0,0,0,0,0,0,0,0,0,0,0,0,0,0,0,0,0,0,0,0,0,0,0,0,0,0,0,0,0,0,0,0,0,0,0,0,0,0,0,0,0,0,0,0,0,0,0,0,0,0,0,0,0,0,0],"sum_hessian":[1.698E3,1.25E3,4.48E2,1.205E3,4.5E1,4.2E1,4.06E2,1.098E3,1.07E2,2.6E1,1.9E1,3.5E1,7E0,1.22E2,2.84E2,1.048E3,5E1,1.3E1,9.4E1,1.2E1,1.4E1,1E0,1.8E1,3.2E1,3E0,6.2E1,6E1,2.75E2,9E0,1.025E3,2.3E1,4.2E1,8E0,1.1E1,2E0,7.5E1,1.9E1,8E0,4E0,1.3E1,1E0,2E0,1.6E1,2.9E1,3E0,5.6E1,6E0,4.8E1,1.2E1,2.74E2,1E0,8E0,1E0,5.3E1,9.72E2,5E0,1.8E1,3.9E1,3E0,6E0,2E0,5.1E1,2.4E1,1.7E1,2E0,3E0,1E0,1.1E1,2E0,2.8E1,1E0,2E0,1E0,5.5E1,1E0,5E0,1E0,4.3E1,5E0,5E0,7E0,2.72E2,2E0,2E1,3.3E1,4.13E2,5.59E2,1.5E1,3E0,3.2E1,7E0,1E0,2E0,5E1,1E0,4E0,2E1,1E0,1.6E1,1E1,1E0,2.1E1,7E0,3E0,5.2E1,2E0,3E0,4.1E1,2E0,3E0,2E0,1E0,4E0,1E0,6E0,2.71E2,1E0,7E0,1.3E1,3.1E1,2E0,4.12E2,1E0,5.38E2,2.1E1,1.4E1,1E0,2E0,1E0,2.8E1,4E0,5E0,2E0,4.3E1,7E0,1.8E1,2E0,2E0,1.4E1,8E0,2E0,2E1,1E0,6E0,1E0,1E0,2E0,4.9E1,3E0,3.8E1,3E0,3E0,1E0,2.7E2,1E0],"tree_param":{"num_deleted":"0","num_feature":"1028","num_nodes":"155","size_leaf_vector":"1"}},{"base_weights":[-9.125263E-3,5.5461603E-1,-1.5498359E0,5.8426505E-1,-6.526416E-1,-1.6988799E-3,-1.6832405E0,6.34718E-1,1.7258426E-2,-9.0794903E-1,3.7421113E-1,3.873344E-1,-1.0724778E0,-1.1399828E0,-1.9304767E0,4.9663773E-1,7.404422E-1,1.5402254E-1,-4.6512386E-1,-0E0,-9.492934E-1,-0E0,1.2214605E-2,5.2022636E-1,-2.1216016E-1,-1.4444464E-3,-1.2338514E0,-8.1016433E-1,-1.6755759E0,8.814778E-3,-1.942305E0,5.2425903E-1,-2.1113335E-1,7.737185E-1,2.5980565E-1,6.702365E-1,-0E0,7.3450455E-3,-6.293105E-1,-9.878658E-1,-0E0,5.980799E-1,-0E0,2.087414E-3,-1.1890214E-2,-1.1458158E-3,-3.9337803E-2,-6.341653E-1,-1.3201445E0,-1.7067595E0,-0E0,-1.9828893E0,-7.6524603E-1,5.630095E-1,-4.344239E-2,-4.5014158E-1,1.1202951E-2,7.9579216E-1,9.074376E-2,5.0129753E-1,-5.1036054E-1,7.264374E-1,-0E0,2.2168367E-1,-2.4362227E-1,-0E0,-6.779701E-1,-0E0,-1.0152607E0,6.5873384E-1,-0E0,-6.800726E-1,1.3465896E-1,-1.5912759E-3,-1.4272623E0,-1.7725222E0,-9.96572E-3,-1.9908088E0,-0E0,-2.4987847E-2,-0E0,6.208831E-1,1.6744734E-1,-1.8673097E-1,3.5269502E-1,3.1273413E-2,-6.1737424E-1,8.7402356E-1,6.3411295E-1,-1.4434195E-1,2.9607987E-1,3.056921E-2,2.8123754E-1,-1.9232403E-2,-0E0,7.632709E-1,-0E0,2.6582786E-1,-0E0,-3.3593357E-1,-0E0,-2.128865E-2,-0E0,-3.1348426E-2,-0E0,6.805381E-1,-0E0,-0E0,-7.3637605E-1,5.0886115E-3,-0E0,-4.42081E-2,-1.394658E-3,-1.8061533E0,-0E0,-1.998003E0,-0E0,1.884733E-2,-7.9163145E-3,1.5662972E-2,-7.0450455E-4,-3.767856E-4,-1.6787503E-2,-0E0,1.3118425E-2,1.5234196E-3,-0E0,-2.208587E-2,-0E0,2.653354E-2,-4.1045793E-3,2.0046802E-2,4.386421E-3,-8.275756E-3,5.3930734E-3,1.2828172E-2,-0E0,9.795634E-3,-4.4141957E-3,2.5585523E-2,3.7516477E-3,-0E0,8.993364E-3,-1.9032382E-3,2.0888424E-3,-1.2701458E-2,1.9716925E-3,1.7259509E-3,-8.173742E-4,2.0991836E-2,-0E0,8.6660925E-3,-1.6427688E-2,-2.441718E-2,-3.613172E-3,-5.724382E-2,-1.9516198E-2,-6.0266238E-2,-4.612806E-3],"categories":[],"categories_nodes":[],"categories_segments":[],"categories_sizes":[],"default_left":[0,0,0,0,0,0,0,0,0,0,0,0,0,0,0,0,0,0,0,0,0,0,0,0,0,0,0,0,0,0,0,0,0,0,0,0,0,0,0,0,0,0,0,0,0,0,0,0,0,0,0,0,0,0,0,0,0,0,0,0,0,0,0,0,0,0,0,0,0,0,0,0,0,0,0,0,0,0,0,0,0,0,0,0,0,0,0,0,0,0,0,0,0,0,0,0,0,0,0,0,0,0,0,0,0,0,0,0,0,0,0,0,0,0,0,0,0,0,0,0,0,0,0,0,0,0,0,0,0,0,0,0,0,0,0,0,0,0,0,0,0,0,0,0,0,0,0,0,0,0,0,0,0,0,0,0,0,0,0],"id":4,"left_children":[1,3,5,7,9,11,13,15,17,19,21,23,25,27,29,31,33,35,37,-1,39,-1,-1,41,43,-1,45,47,49,-1,51,53,55,57,59,61,63,-1,65,67,-1,69,-1,-1,-1,-1,-1,71,73,75,-1,77,79,81,83,85,-1,87,89,91,93,95,-1,97,99,-1,101,-1,103,105,-1,107,109,-1,111,113,-1,115,-1,-1,-1,117,119,121,123,125,127,129,131,133,135,-1,137,-1,-1,139,-1,141,143,145,147,-1,-1,-1,-1,149,-1,151,153,-1,-1,-1,-1,155,-1,157,-1,-1,-1,-1,-1,-1,-1,-1,-1,-1,-1,-1,-1,-1,-1,-1,-1,-1,-1,-1,-1,-1,-1,-1,-1,-1,-1,-1,-1,-1,-1,-1,-1,-1,-1,-1,-1,-1,-1,-1,-1,-1,-1],"loss_changes":[1.4587955E3,4.47193E1,9.208972E1,3.4009277E1,8.811294E0,1.7002995E1,4.9668945E1,1.473349E1,6.65096E0,1.0185051E0,1.4405906E-2,2.6851473E0,1.0584822E0,1.9889694E1,9.358643E0,9.879021E0,8.965332E0,6.6135645E0,3.064838E0,0E0,8.1741905E-1,0E0,0E0,1.1035047E0,5.298816E-1,0E0,5.809784E-2,5.246994E0,2.2551575E0,0E0,8.966797E0,1.0626083E1,3.029151E0,8.095947E0,8.690665E0,4.3596935E-1,3.5701423E0,0E0,2.8933668E-1,2.3138428E-1,0E0,8.0921507E-1,0E0,0E0,0E0,0E0,0E0,2.9264908E0,1.8230209E0,2.1090088E0,0E0,4.502075E0,7.124138E-1,9.470657E0,1.8083571E0,1.5392897E0,0E0,5.1826477E0,1.1750458E0,2.7639408E0,8.337071E-1,3.5022736E-1,0E0,3.7838507E-1,8.091744E-1,0E0,2.4306822E-1,0E0,2.5362587E-1,1.2090397E-1,0E0,2.632063E0,2.4419136E-2,0E0,2.546997E-1,2.153778E0,0E0,3.6984863E0,0E0,0E0,0E0,3.0016785E0,4.336666E0,1.3233783E0,1.5213704E-1,5.4245675E-3,8.460293E-1,4.4949036E0,2.5763931E0,5.7348627E-1,6.8884397E-1,0E0,7.2893643E-1,0E0,0E0,2.124815E-1,0E0,3.7714887E-1,3.8692985E-2,1.0774632E0,2.6880944E-2,0E0,0E0,0E0,0E0,1.3634682E-2,0E0,1.4002376E0,2.297493E0,0E0,0E0,0E0,0E0,1.423111E0,0E0,3.654419E0,0E0,0E0,0E0,0E0,0E0,0E0,0E0,0E0,0E0,0E0,0E0,0E0,0E0,0E0,0E0,0E0,0E0,0E0,0E0,0E0,0E0,0E0,0E0,0E0,0E0,0E0,0E0,0E0,0E0,0E0,0E0,0E0,0E0,0E0,0E0,0E0,0E0,0E0,0E0,0E0,0E0,0E0,0E0],"parents":[2147483647,0,0,1,1,2,2,3,3,4,4,5,5,6,6,7,7,8,8,9,9,10,10,11,11,12,12,13,13,14,14,15,15,16,16,17,17,18,18,20,20,23,23,24,24,26,26,27,27,28,28,30,30,31,31,32,32,33,33,34,34,35,35,36,36,38,38,39,39,41,41,47,47,48,48,49,49,51,51,52,52,53,53,54,54,55,55,57,57,58,58,59,59,60,60,61,61,63,63,64,64,66,66,68,68,69,69,71,71,72,72,74,74,75,75,77,77,81,81,82,82,83,83,84,84,85,85,86,86,87,87,88,88,89,89,90,90,92,92,95,95,97,97,98,98,99,99,100,100,105,105,107,107,108,108,113,113,115,115],"right_children":[2,4,6,8,10,12,14,16,18,20,22,24,26,28,30,32,34,36,38,-1,40,-1,-1,42,44,-1,46,48,50,-1,52,54,56,58,60,62,64,-1,66,68,-1,70,-1,-1,-1,-1,-1,72,74,76,-1,78,80,82,84,86,-1,88,90,92,94,96,-1,98,100,-1,102,-1,104,106,-1,108,110,-1,112,114,-1,116,-1,-1,-1,118,120,122,124,126,128,130,132,134,136,-1,138,-1,-1,140,-1,142,144,146,148,-1,-1,-1,-1,150,-1,152,154,-1,-1,-1,-1,156,-1,158,-1,-1,-1,-1,-1,-1,-1,-1,-1,-1,-1,-1,-1,-1,-1,-1,-1,-1,-1,-1,-1,-1,-1,-1,-1,-1,-1,-1,-1,-1,-1,-1,-1,-1,-1,-1,-1,-1,-1,-1,-1,-1,-1],"split_conditions":[1E0,1E0,1E0,1E0,1E0,1E0,5.12535E2,6E0,1E0,1E0,3.89456E2,1E0,4.65403E2,1E0,1E0,1E0,1E0,1E0,1E0,-0E0,1E0,-0E0,1.2214605E-2,1E0,4.10406E2,-1.4444464E-3,1E0,1E0,6E0,8.814778E-3,1E0,1E0,1E0,1E0,1E0,1E0,4.75995E2,7.3450455E-3,1E0,5E0,-0E0,1E0,-0E0,2.087414E-3,-1.1890214E-2,-1.1458158E-3,-3.9337803E-2,1E0,1E0,1E0,-0E0,1E0,1E0,1E0,1E0,3.2644E2,1.1202951E-2,1E0,1E0,1E0,1E0,1E0,-0E0,1E0,1E0,-0E0,4.76412E2,-0E0,1E0,1E0,-0E0,1E0,1E0,-1.5912759E-3,1E0,1E0,-9.96572E-3,1E0,-0E0,-2.4987847E-2,-0E0,1E0,4.08936E2,1E0,3.21311E2,1E0,1E0,1E0,1E0,1E0,1E0,3.056921E-2,1E0,-1.9232403E-2,-0E0,1E0,-0E0,1E0,1E0,1E0,1E0,-2.128865E-2,-0E0,-3.1348426E-2,-0E0,1E0,-0E0,1E0,1E0,5.0886115E-3,-0E0,-4.42081E-2,-1.394658E-3,1E0,-0E0,1E0,-0E0,1.884733E-2,-7.9163145E-3,1.5662972E-2,-7.0450455E-4,-3.767856E-4,-1.6787503E-2,-0E0,1.3118425E-2,1.5234196E-3,-0E0,-2.208587E-2,-0E0,2.653354E-2,-4.1045793E-3,2.0046802E-2,4.386421E-3,-8.275756E-3,5.3930734E-3,1.2828172E-2,-0E0,9.795634E-3,-4.4141957E-3,2.5585523E-2,3.7516477E-3,-0E0,8.993364E-3,-1.9032382E-3,2.0888424E-3,-1.2701458E-2,1.9716925E-3,1.7259509E-3,-8.173742E-4,2.0991836E-2,-0E0,8.6660925E-3,-1.6427688E-2,-2.441718E-2,-3.613172E-3,-5.724382E-2,-1.9516198E-2,-6.0266238E-2,-4.612806E-3],"split_indices":[640,438,7,954,1,116,0,2,380,68,0,329,0,565,1,949,33,509,1023,0,91,0,0,1025,0,0,33,650,2,0,989,66,703,491,282,17,0,0,84,2,0,416,0,0,0,0,0,57,460,64,0,438,8,484,1023,0,0,433,515,846,151,462,0,553,37,0,0,0,152,188,0,84,8,0,33,263,0,16,0,0,0,136,0,390,0,1,213,1012,467,78,12,0,684,0,0,94,0,8,180,375,7,0,0,0,0,14,0,24,107,0,0,0,0,863,0,647,0,0,0,0,0,0,0,0,0,0,0,0,0,0,0,0,0,0,0,0,0,0,0,0,0,0,0,0,0,0,0,0,0,0,0,0,0,0,0,0,0,0,0],"split_type":[0,0,0,0,0,0,0,0,0,0,0,0,0,0,0,0,0,0,0,0,0,0,0,0,0,0,0,0,0,0,0,0,0,0,0,0,0,0,0,0,0,0,0,0,0,0,0,0,0,0,0,0,0,0,0,0,0,0,0,0,0,0,0,0,0,0,0,0,0,0,0,0,0,0,0,0,0,0,0,0,0,0,0,0,0,0,0,0,0,0,0,0,0,0,0,0,0,0,0,0,0,0,0,0,0,0,0,0,0,0,0,0,0,0,0,0,0,0,0,0,0,0,0,0,0,0,0,0,0,0,0,0,0,0,0,0,0,0,0,0,0,0,0,0,0,0,0,0,0,0,0,0,0,0,0,0,0,0,0],"sum_hessian":[1.675E3,1.227E3,4.48E2,1.199E3,2.8E1,3.6E1,4.12E2,1.1E3,9.9E1,2.3E1,5E0,2.7E1,9E0,1.33E2,2.79E2,4.84E2,6.16E2,7.9E1,2E1,1E0,2.2E1,1E0,4E0,2.3E1,4E0,2E0,7E0,8.6E1,4.7E1,1E0,2.78E2,4.67E2,1.7E1,5.74E2,4.2E1,1.7E1,6.2E1,3E0,1.7E1,2.1E1,1E0,2E1,3E0,1E0,3E0,1E0,6E0,6.8E1,1.8E1,4.6E1,1E0,2.67E2,1.1E1,4.38E2,2.9E1,1.3E1,4E0,5.55E2,1.9E1,3.3E1,9E0,1.5E1,2E0,3.2E1,3E1,2E0,1.5E1,1E0,2E1,1.8E1,2E0,6.5E1,3E0,2E0,1.6E1,4.3E1,3E0,2.66E2,1E0,1E1,1E0,3.8E2,5.8E1,2.3E1,6E0,3E0,1E1,3.66E2,1.89E2,8E0,1.1E1,7E0,2.6E1,7E0,2E0,1.4E1,1E0,2.7E1,5E0,2.2E1,8E0,1.4E1,1E0,1.9E1,1E0,1.7E1,1E0,5E0,6E1,2E0,1E0,1.5E1,1E0,4.2E1,1E0,2.65E2,1E0,3.78E2,2E0,2E1,3.8E1,1.8E1,5E0,2E0,4E0,2E0,1E0,8E0,2E0,3.63E2,3E0,1.75E2,1.4E1,7E0,1E0,8E0,3E0,2.5E1,1E0,1.1E1,3E0,2E0,2.5E1,4E0,1E0,1.9E1,3E0,5E0,3E0,1.6E1,1E0,4E0,1E0,5.2E1,8E0,3.7E1,5E0,2.63E2,2E0],"tree_param":{"num_deleted":"0","num_feature":"1028","num_nodes":"159","size_leaf_vector":"1"}},{"base_weights":[1.00284275E-2,5.302258E-1,-1.5543393E0,5.64091E-1,-4.5544833E-1,-9.0959793E-1,-1.8846021E0,6.44814E-1,2.529897E-1,-1.3376822E-3,-9.072464E-1,-6.08723E-1,-1.6280576E0,-1.9002702E0,1.3801515E-2,4.1523907E-1,7.513743E-1,3.840115E-1,-6.524329E-1,-2.3683718E-1,3.2572907E-1,-0E0,-9.568245E-1,-4.389011E-1,-5.2312322E-2,-1.6606259E0,-0E0,-1.9911729E0,-1.3483146E0,-0E0,1.7324209E-3,5.009726E-1,1.8326437E-1,8.580205E-1,5.65904E-1,4.3820667E-1,-8.3508486E-1,-7.3982793E-1,6.782838E-3,-3.1072646E-1,3.7150192E-3,1.5170331E-2,-2.1609825E-3,-0E0,-9.869112E-1,2.6740256E-1,-5.9119326E-1,-1.7664815E0,-1.7109986E-2,-2.0003967E0,-0E0,-1.3793203E0,-0E0,5.6243473E-1,-0E0,-4.229362E-1,3.0308878E-1,9.027898E-1,1.8107913E-1,6.12196E-1,-2.6737093E-3,5.679832E-1,1.1743395E-1,3.510928E-2,-3.8684547E-2,-8.061299E-1,-0E0,-5.5302072E-2,-5.154109E-1,-3.0599123E-2,-0E0,4.8375335E-1,-1.1658325E-2,-6.9897807E-1,-7.377054E-2,-1.7995682E0,-1.0844899E-3,-2.0057354E0,-2.7251458E-3,-1.4084488E0,-0E0,5.898239E-1,-1.03470325E-1,3.4366187E-1,-3.648163E-1,-0E0,-6.179804E-1,4.531727E-1,-4.5277636E-2,9.3972105E-1,4.8713434E-1,-1.9396268E-1,3.4077087E-1,6.2216747E-1,-4.2677447E-3,2.776805E-1,-2.3481527E-1,6.0300016E-1,-0E0,3.5339385E-1,-2.7941892E-2,5.1272837E-3,-8.09145E-5,-8.544185E-1,4.5952082E-4,-0E0,-1.452467E-1,-1.7152583E-2,-0E0,5.115055E-1,-0E0,-8.3755195E-1,-2.8910484E-2,3.104343E-2,-3.038029E-1,-1.8312589E0,-2.2208358E-3,-2.01028E0,-4.650538E-3,-1.4373217E0,-0E0,1.8437164E-2,-1.6216477E-4,-8.6844135E-3,1.8338985E-3,1.1930312E-2,-0E0,1.653732E-3,-1.7814524E-2,-0E0,1.7306828E-3,-1.9624697E-2,-0E0,4.0508765E-3,1.973322E-2,-6.472188E-3,1.766321E-2,2.8374705E-2,-7.1445033E-3,1.590882E-2,-2.724123E-4,1.0286579E-3,-1.2085536E-2,1.0811323E-2,-0E0,1.9140402E-2,-0E0,1.1204622E-2,-0E0,-1.0141563E-2,1.2448096E-3,1.8979747E-2,-1.2799501E-4,-4.0277825E-3,2.5150098E-3,1.1698661E-2,-0E0,9.961565E-4,-9.452472E-3,-0E0,-2.6380338E-2,-0E0,6.564438E-5,-4.9807867E-3,-0E0,1.6099088E-2,-0E0,-2.8171256E-2,-1.9761212E-3,3.5623175E-3,-1.3265579E-2,-2.110628E-3,4.080975E-3,-0E0,-1.0069952E-2,-4.2542573E-3,-5.576125E-2,-6.055603E-2,-1.2350896E-2,-4.4212617E-2,-6.606885E-3],"categories":[],"categories_nodes":[],"categories_segments":[],"categories_sizes":[],"default_left":[0,0,0,0,0,0,0,0,0,0,0,0,0,0,0,0,0,0,0,0,0,0,0,0,0,0,0,0,0,0,0,0,0,0,0,0,0,0,0,0,0,0,0,0,0,0,0,0,0,0,0,0,0,0,0,0,0,0,0,0,0,0,0,0,0,0,0,0,0,0,0,0,0,0,0,0,0,0,0,0,0,0,0,0,0,0,0,0,0,0,0,0,0,0,0,0,0,0,0,0,0,0,0,0,0,0,0,0,0,0,0,0,0,0,0,0,0,0,0,0,0,0,0,0,0,0,0,0,0,0,0,0,0,0,0,0,0,0,0,0,0,0,0,0,0,0,0,0,0,0,0,0,0,0,0,0,0,0,0,0,0,0,0,0,0,0,0,0,0,0,0,0,0,0,0,0,0,0,0,0,0],"id":5,"left_children":[1,3,5,7,9,11,13,15,17,19,21,23,25,27,29,31,33,35,37,39,41,-1,43,45,-1,47,-1,49,51,-1,-1,53,55,57,59,61,63,65,-1,67,-1,-1,-1,-1,69,71,73,75,-1,77,-1,79,-1,81,83,85,87,89,91,93,95,97,99,101,-1,103,-1,105,107,-1,-1,109,-1,111,113,115,-1,117,-1,119,-1,121,123,125,127,129,131,133,135,137,139,141,143,145,-1,147,149,151,153,155,157,-1,-1,159,-1,161,163,-1,-1,165,-1,167,169,171,173,175,-1,177,-1,179,-1,-1,-1,-1,-1,-1,-1,-1,-1,-1,-1,-1,-1,-1,-1,-1,-1,-1,-1,-1,-1,-1,-1,-1,-1,-1,-1,-1,-1,-1,-1,-1,-1,-1,-1,-1,-1,-1,-1,-1,-1,-1,-1,-1,-1,-1,-1,-1,-1,-1,-1,-1,-1,-1,-1,-1,-1,-1,-1,-1,-1],"loss_changes":[1.3829347E3,4.3161102E1,8.5458496E1,3.023944E1,8.365434E0,2.8892189E1,9.264648E0,2.2718048E1,3.1092066E1,1.958421E0,1.0252438E0,1.8195171E1,1.7408218E0,6.808899E0,9.2423465E-3,5.758873E0,1.1450623E1,1.559721E1,3.1251135E0,5.967988E-1,1.0054401E0,0E0,1.9561768E-1,1.0911825E1,0E0,1.548584E0,0E0,4.5401E0,1.987793E0,0E0,0E0,6.993599E0,6.7338367E0,1.1738495E1,6.8881836E0,8.68222E0,4.671898E0,1.8778076E0,0E0,4.4185793E-1,0E0,0E0,0E0,0E0,2.2024918E-1,2.9782772E0,4.027891E0,1.0130615E0,0E0,9.4226074E-1,0E0,1.6704254E0,0E0,4.067665E0,3.6348257E0,1.5177722E0,4.2708697E0,4.3424377E0,1.9424392E0,2.1623077E0,1.4106119E0,3.0831795E0,2.4807673E0,1.106987E-1,0E0,1.596056E0,0E0,7.489982E-2,1.0186863E-1,0E0,0E0,1.526699E-1,0E0,5.646698E0,5.651221E-1,6.90155E-1,0E0,2.2845459E-1,0E0,1.5493927E0,0E0,3.198471E0,4.2512298E-1,2.8435946E-1,1.681151E0,1.331228E-2,7.831049E-2,3.006052E0,2.6614861E0,3.3488464E0,1.0626478E0,6.4101934E-1,4.26929E-2,2.1504517E0,0E0,2.8249186E-1,5.4716146E-1,2.9491081E0,1.4635262E-1,4.2967558E-1,8.992915E-1,0E0,0E0,4.368019E-1,0E0,1.9151934E-5,4.775822E-3,0E0,0E0,8.0791E-2,0E0,3.6029968E0,1.121042E0,1.7972787E-1,2.9952765E-2,4.9316406E-2,0E0,1.4465332E-1,0E0,4.1056824E-1,0E0,0E0,0E0,0E0,0E0,0E0,0E0,0E0,0E0,0E0,0E0,0E0,0E0,0E0,0E0,0E0,0E0,0E0,0E0,0E0,0E0,0E0,0E0,0E0,0E0,0E0,0E0,0E0,0E0,0E0,0E0,0E0,0E0,0E0,0E0,0E0,0E0,0E0,0E0,0E0,0E0,0E0,0E0,0E0,0E0,0E0,0E0,0E0,0E0,0E0,0E0,0E0,0E0,0E0,0E0,0E0,0E0,0E0,0E0,0E0,0E0],"parents":[2147483647,0,0,1,1,2,2,3,3,4,4,5,5,6,6,7,7,8,8,9,9,10,10,11,11,12,12,13,13,14,14,15,15,16,16,17,17,18,18,19,19,20,20,22,22,23,23,25,25,27,27,28,28,31,31,32,32,33,33,34,34,35,35,36,36,37,37,39,39,44,44,45,45,46,46,47,47,49,49,51,51,53,53,54,54,55,55,56,56,57,57,58,58,59,59,60,60,61,61,62,62,63,63,65,65,67,67,68,68,71,71,73,73,74,74,75,75,77,77,79,79,81,81,82,82,83,83,84,84,85,85,86,86,87,87,88,88,89,89,90,90,91,91,92,92,93,93,95,95,96,96,97,97,98,98,99,99,100,100,103,103,105,105,106,106,109,109,111,111,112,112,113,113,114,114,115,115,117,117,119,119],"right_children":[2,4,6,8,10,12,14,16,18,20,22,24,26,28,30,32,34,36,38,40,42,-1,44,46,-1,48,-1,50,52,-1,-1,54,56,58,60,62,64,66,-1,68,-1,-1,-1,-1,70,72,74,76,-1,78,-1,80,-1,82,84,86,88,90,92,94,96,98,100,102,-1,104,-1,106,108,-1,-1,110,-1,112,114,116,-1,118,-1,120,-1,122,124,126,128,130,132,134,136,138,140,142,144,146,-1,148,150,152,154,156,158,-1,-1,160,-1,162,164,-1,-1,166,-1,168,170,172,174,176,-1,178,-1,180,-1,-1,-1,-1,-1,-1,-1,-1,-1,-1,-1,-1,-1,-1,-1,-1,-1,-1,-1,-1,-1,-1,-1,-1,-1,-1,-1,-1,-1,-1,-1,-1,-1,-1,-1,-1,-1,-1,-1,-1,-1,-1,-1,-1,-1,-1,-1,-1,-1,-1,-1,-1,-1,-1,-1,-1,-1,-1,-1,-1,-1],"split_conditions":[1E0,1E0,5.13006E2,1E0,1E0,1E0,1E0,7.433E1,1E0,6.436E1,1E0,1E0,1E0,8.873E1,5.1701E2,1E0,1E0,1E0,1E0,1E0,1E0,-0E0,5E0,1E0,-5.2312322E-2,1E0,-0E0,1E0,1E0,-0E0,1.7324209E-3,1E0,4.149E1,1E0,1E0,1E0,4.65403E2,1E0,6.782838E-3,4.73549E2,3.7150192E-3,1.5170331E-2,-2.1609825E-3,-0E0,1E0,1E0,1E0,2E0,-1.7109986E-2,1E0,-0E0,1E0,-0E0,1E0,1E0,2.96305E2,5E0,1E0,1E0,1E0,5.18486E2,1E0,1E0,4.60413E2,-3.8684547E-2,1E0,-0E0,1E0,1E0,-3.0599123E-2,-0E0,1E0,-1.1658325E-2,6E0,6E0,1E0,-1.0844899E-3,1E0,-2.7251458E-3,1E0,-0E0,1E0,5E0,1E0,1E0,2.80397E2,1E0,1E0,1E0,1E0,1E0,4.77414E2,1E0,1E0,-4.2677447E-3,1E0,1E0,1E0,4.45969E2,1E0,1E0,5.1272837E-3,-8.09145E-5,1E0,4.5952082E-4,1E0,4.53992E2,-1.7152583E-2,-0E0,1E0,-0E0,1E0,1E0,1E0,4.83005E2,1E0,-2.2208358E-3,1E0,-4.650538E-3,1E0,-0E0,1.8437164E-2,-1.6216477E-4,-8.6844135E-3,1.8338985E-3,1.1930312E-2,-0E0,1.653732E-3,-1.7814524E-2,-0E0,1.7306828E-3,-1.9624697E-2,-0E0,4.0508765E-3,1.973322E-2,-6.472188E-3,1.766321E-2,2.8374705E-2,-7.1445033E-3,1.590882E-2,-2.724123E-4,1.0286579E-3,-1.2085536E-2,1.0811323E-2,-0E0,1.9140402E-2,-0E0,1.1204622E-2,-0E0,-1.0141563E-2,1.2448096E-3,1.8979747E-2,-1.2799501E-4,-4.0277825E-3,2.5150098E-3,1.1698661E-2,-0E0,9.961565E-4,-9.452472E-3,-0E0,-2.6380338E-2,-0E0,6.564438E-5,-4.9807867E-3,-0E0,1.6099088E-2,-0E0,-2.8171256E-2,-1.9761212E-3,3.5623175E-3,-1.3265579E-2,-2.110628E-3,4.080975E-3,-0E0,-1.0069952E-2,-4.2542573E-3,-5.576125E-2,-6.055603E-2,-1.2350896E-2,-4.4212617E-2,-6.606885E-3],"split_indices":[301,676,0,311,177,329,496,3,781,3,68,411,263,3,0,722,433,863,259,188,528,0,2,876,0,488,0,201,373,0,0,528,3,164,1027,660,0,151,0,0,0,0,0,0,898,14,393,1,0,36,0,507,0,697,241,0,2,108,939,232,0,492,908,0,0,109,0,663,12,0,0,130,0,2,2,54,0,188,0,168,0,584,2,427,19,0,668,908,158,200,888,0,595,50,0,389,125,81,0,734,305,0,0,63,0,37,0,0,0,95,0,255,314,743,0,1,0,459,0,69,0,0,0,0,0,0,0,0,0,0,0,0,0,0,0,0,0,0,0,0,0,0,0,0,0,0,0,0,0,0,0,0,0,0,0,0,0,0,0,0,0,0,0,0,0,0,0,0,0,0,0,0,0,0,0,0,0,0,0,0,0],"split_type":[0,0,0,0,0,0,0,0,0,0,0,0,0,0,0,0,0,0,0,0,0,0,0,0,0,0,0,0,0,0,0,0,0,0,0,0,0,0,0,0,0,0,0,0,0,0,0,0,0,0,0,0,0,0,0,0,0,0,0,0,0,0,0,0,0,0,0,0,0,0,0,0,0,0,0,0,0,0,0,0,0,0,0,0,0,0,0,0,0,0,0,0,0,0,0,0,0,0,0,0,0,0,0,0,0,0,0,0,0,0,0,0,0,0,0,0,0,0,0,0,0,0,0,0,0,0,0,0,0,0,0,0,0,0,0,0,0,0,0,0,0,0,0,0,0,0,0,0,0,0,0,0,0,0,0,0,0,0,0,0,0,0,0,0,0,0,0,0,0,0,0,0,0,0,0,0,0,0,0,0,0],"sum_hessian":[1.696E3,1.274E3,4.22E2,1.233E3,4.1E1,1.46E2,2.76E2,9.76E2,2.57E2,2.2E1,1.9E1,1.06E2,4E1,2.74E2,2E0,3.14E2,6.62E2,2.26E2,3.1E1,1.4E1,8E0,1E0,1.8E1,9.5E1,1.1E1,3.9E1,1E0,2.3E2,4.4E1,1E0,1E0,2.26E2,8.8E1,4.14E2,2.48E2,2.18E2,8E0,2.9E1,2E0,1.3E1,1E0,6E0,2E0,1E0,1.7E1,1.6E1,7.9E1,3.4E1,5E0,2.29E2,1E0,4.3E1,1E0,2.01E2,2.5E1,1.3E1,7.5E1,3.87E2,2.7E1,2.3E2,1.8E1,1.53E2,6.5E1,3E0,5E0,2.7E1,2E0,8E0,5E0,1.6E1,1E0,1.3E1,3E0,6.4E1,1.5E1,3.3E1,1E0,2.28E2,1E0,4.2E1,1E0,1.94E2,7E0,1.3E1,1.2E1,4E0,9E0,5.3E1,2.2E1,3.52E2,3.5E1,7E0,2E1,2.28E2,2E0,7E0,1.1E1,1.44E2,9E0,2.5E1,4E1,2E0,1E0,2.6E1,1E0,5E0,3E0,4E0,1E0,1.2E1,1E0,5.2E1,1.2E1,1E1,5E0,3.2E1,1E0,2.27E2,1E0,4.1E1,1E0,1.87E2,7E0,4E0,3E0,1.1E1,2E0,4E0,8E0,2E0,2E0,8E0,1E0,2.3E1,3E1,1.9E1,3E0,3.51E2,1E0,3.3E1,2E0,3E0,4E0,1.8E1,2E0,2.22E2,6E0,5E0,2E0,9E0,2E0,1.38E2,6E0,3E0,6E0,2.3E1,2E0,3.3E1,7E0,1E0,2.5E1,3E0,2E0,2E0,1E0,1.1E1,1E0,4.5E1,7E0,9E0,3E0,3E0,7E0,1E0,4E0,1E0,3.1E1,2.25E2,2E0,3.9E1,2E0],"tree_param":{"num_deleted":"0","num_feature":"1028","num_nodes":"181","size_leaf_vector":"1"}},{"base_weights":[1.0907968E-2,5.1714826E-1,-1.5310577E0,5.566505E-1,-1.2691267E-1,-1.0782827E0,-1.8566234E0,6.362458E-1,2.6563406E-1,2.7505147E-1,-5.803777E-1,1.6034226E-1,-1.2133278E0,-1.8821496E0,-1.5889208E-1,2.0489986E-1,6.981113E-1,-3.8260984E-1,4.3297333E-1,3.84984E-1,-3.931314E-2,-7.410809E-1,1.0485372E-1,3.4091136E-1,-1.1448474E-2,-4.383266E-1,-1.3006428E0,-1.9114801E0,-5.131942E-1,8.817311E-2,-1.894218E-2,2.9319596E-1,-3.799427E-1,7.217549E-1,-1.9702147E-1,-7.1713746E-2,-8.055756E-1,5.8070445E-1,8.771632E-2,1.9444918E-2,9.51136E-2,-6.682882E-3,5.7733126E-2,-7.7377874E-1,-0E0,1.7619936E-1,-0E0,4.4085073E-1,-6.5817917E-3,-5.177361E-1,5.704541E-3,-1.457056E0,-7.5603944E-1,-1.9277233E0,-9.4783595E-3,-1.7796403E-2,-0E0,-0E0,5.955915E-3,3.9841348E-1,-0E0,-5.5716044E-1,1.3280058E-1,7.423396E-1,6.272821E-2,-0E0,-4.3048933E-1,1.0724113E-1,-5.1084507E-1,-9.082882E-1,-0E0,6.07006E-1,-8.956239E-3,2.5025785E-1,-1.47085E-1,1.7208685E-1,-7.3851585E-2,4.7364268E-3,-4.3153524E-4,-8.0442494E-1,-0E0,7.497003E-3,-0E0,1.4487051E-2,-0E0,-2.140763E-2,-7.543266E-3,-1.5444006E0,-3.526411E-1,-3.25813E-1,-3.9307892E-2,-1.9355152E0,-0E0,4.9169895E-1,-6.922601E-2,-7.805714E-2,2.6410434E-1,-6.1160797E-1,-0E0,5.478687E-3,-0E0,7.602148E-1,8.580809E-3,-2.9152079E-2,2.9384756E-1,-4.5658853E-2,5.447868E-2,-1.5195232E-2,-0E0,2.386499E-1,-1.2385222E-1,-6.712848E-1,5.935521E-3,-2.8211564E-2,-0E0,6.325969E-1,-7.416727E-3,2.9218218E-1,-2.0541071E-3,1.8215029E-1,-3.0553237E-1,-0E0,2.0302415E-1,-2.7666055E-3,-0E0,-8.319174E-1,-0E0,-4.455063E-3,2.479999E-3,-1.58541E0,-3.1057548E-2,-4.646324E-1,-0E0,-6.2976724E-1,4.1435797E-2,-1.9428818E0,-0E0,1.6156318E-2,-0E0,-6.1661038E-3,7.479581E-3,-1.0046191E-2,-0E0,1.042727E-2,-0E0,-1.9317482E-2,-0E0,2.3378702E-2,1.0443857E-2,7.5941067E-3,-7.831748E-3,1.0232724E-2,-0E0,-2.6646382E-3,-0E0,2.7395536E-3,-0E0,1.0736135E-2,-6.976801E-3,-5.417184E-3,-0E0,-2.4158435E-2,3.4682514E-4,1.5160738E-2,2.414713E-2,1.0351347E-2,-0E0,7.7161323E-3,-0E0,-1.01135075E-2,-0E0,7.1430295E-3,-0E0,-2.5632314E-2,-0E0,-4.8125494E-2,-0E0,-0E0,-2.211272E-3,-1.9144809E-2,-0E0,-2.2525724E-2,-0E0,6.7814426E-3,-2.5076019E-3,-5.846276E-2,-1.382091E-3],"categories":[],"categories_nodes":[],"categories_segments":[],"categories_sizes":[],"default_left":[0,0,0,0,0,0,0,0,0,0,0,0,0,0,0,0,0,0,0,0,0,0,0,0,0,0,0,0,0,0,0,0,0,0,0,0,0,0,0,0,0,0,0,0,0,0,0,0,0,0,0,0,0,0,0,0,0,0,0,0,0,0,0,0,0,0,0,0,0,0,0,0,0,0,0,0,0,0,0,0,0,0,0,0,0,0,0,0,0,0,0,0,0,0,0,0,0,0,0,0,0,0,0,0,0,0,0,0,0,0,0,0,0,0,0,0,0,0,0,0,0,0,0,0,0,0,0,0,0,0,0,0,0,0,0,0,0,0,0,0,0,0,0,0,0,0,0,0,0,0,0,0,0,0,0,0,0,0,0,0,0,0,0,0,0,0,0,0,0,0,0,0,0,0,0,0,0,0,0,0,0,0,0,0,0,0,0],"id":6,"left_children":[1,3,5,7,9,11,13,15,17,19,21,23,25,27,29,31,33,35,37,39,41,43,45,47,-1,49,51,53,55,57,-1,59,61,63,65,67,69,71,73,-1,75,-1,77,79,-1,81,-1,83,-1,85,-1,87,89,91,-1,-1,-1,-1,-1,93,95,97,99,101,103,105,107,109,111,113,-1,115,-1,117,119,121,123,-1,-1,125,-1,-1,-1,-1,-1,-1,127,129,131,133,-1,135,-1,137,139,141,143,145,-1,-1,-1,147,149,-1,151,153,155,-1,-1,157,159,161,-1,-1,-1,163,-1,165,-1,167,169,-1,171,-1,-1,173,-1,-1,-1,175,177,179,-1,181,183,185,-1,-1,-1,-1,-1,-1,-1,-1,-1,-1,-1,-1,-1,-1,-1,-1,-1,-1,-1,-1,-1,-1,-1,-1,-1,-1,-1,-1,-1,-1,-1,-1,-1,-1,-1,-1,-1,-1,-1,-1,-1,-1,-1,-1,-1,-1,-1,-1,-1,-1,-1],"loss_changes":[1.3109319E3,3.254013E1,5.5703003E1,2.6845123E1,1.3960405E1,3.0856949E1,8.695557E0,2.4186584E1,2.8668905E1,1.5854609E0,4.4378023E0,2.0991988E0,8.952744E0,6.2213135E0,1.0834129E0,6.427778E0,1.7795593E1,6.5467277E0,1.0224003E1,1.8699937E0,3.0407047E-1,8.872452E-1,1.2936911E-1,1.2001115E0,0E0,1.3588314E0,8.956619E0,3.5690308E0,3.5636926E-1,7.937062E-2,0E0,3.3417978E0,1.814038E0,1.0289185E1,9.992266E-1,2.9832487E0,2.2228022E0,3.8698654E0,2.6440926E0,0E0,3.0863976E-1,0E0,1.2684722E-1,7.5551414E-1,0E0,1.5737687E-1,0E0,1.1628246E-1,0E0,1.5271883E0,0E0,8.476898E0,7.1505013E0,3.0267944E0,0E0,0E0,0E0,0E0,0E0,3.725606E0,6.405806E-1,4.5321083E-1,4.522454E-2,9.701965E0,6.687427E0,3.9538063E-2,4.5573997E-1,8.7570584E-1,1.7530775E0,3.0242157E-1,0E0,3.6096687E0,0E0,6.997285E-1,1.5814912E0,1.3285506E-1,6.7479685E-3,0E0,0E0,5.6755066E-1,0E0,0E0,0E0,0E0,0E0,0E0,1.5919715E-1,5.299423E0,5.750363E-1,3.0253994E0,0E0,2.625E0,0E0,1.4933586E0,6.884938E-1,4.0837672E-1,2.3659536E-1,7.213545E-2,0E0,0E0,0E0,4.797058E0,1.5129858E0,0E0,4.872315E-1,3.6461957E-2,2.925887E-2,0E0,0E0,1.2403171E0,1.22797936E-1,1.3304682E0,0E0,0E0,0E0,1.578804E0,0E0,5.657158E-1,0E0,2.3062432E-1,2.923081E-1,0E0,1.0324168E-1,0E0,0E0,2.9411316E-1,0E0,0E0,0E0,3.234848E0,1.6909253E-2,9.077902E-1,0E0,1.2129483E0,3.859883E-1,1.3088989E0,0E0,0E0,0E0,0E0,0E0,0E0,0E0,0E0,0E0,0E0,0E0,0E0,0E0,0E0,0E0,0E0,0E0,0E0,0E0,0E0,0E0,0E0,0E0,0E0,0E0,0E0,0E0,0E0,0E0,0E0,0E0,0E0,0E0,0E0,0E0,0E0,0E0,0E0,0E0,0E0,0E0,0E0,0E0,0E0,0E0,0E0,0E0,0E0,0E0,0E0,0E0],"parents":[2147483647,0,0,1,1,2,2,3,3,4,4,5,5,6,6,7,7,8,8,9,9,10,10,11,11,12,12,13,13,14,14,15,15,16,16,17,17,18,18,19,19,20,20,21,21,22,22,23,23,25,25,26,26,27,27,28,28,29,29,31,31,32,32,33,33,34,34,35,35,36,36,37,37,38,38,40,40,42,42,43,43,45,45,47,47,49,49,51,51,52,52,53,53,59,59,60,60,61,61,62,62,63,63,64,64,65,65,66,66,67,67,68,68,69,69,71,71,73,73,74,74,75,75,76,76,79,79,86,86,87,87,88,88,89,89,91,91,93,93,94,94,95,95,96,96,97,97,101,101,102,102,104,104,105,105,106,106,109,109,110,110,111,111,115,115,117,117,119,119,120,120,122,122,125,125,129,129,130,130,131,131,133,133,134,134,135,135],"right_children":[2,4,6,8,10,12,14,16,18,20,22,24,26,28,30,32,34,36,38,40,42,44,46,48,-1,50,52,54,56,58,-1,60,62,64,66,68,70,72,74,-1,76,-1,78,80,-1,82,-1,84,-1,86,-1,88,90,92,-1,-1,-1,-1,-1,94,96,98,100,102,104,106,108,110,112,114,-1,116,-1,118,120,122,124,-1,-1,126,-1,-1,-1,-1,-1,-1,128,130,132,134,-1,136,-1,138,140,142,144,146,-1,-1,-1,148,150,-1,152,154,156,-1,-1,158,160,162,-1,-1,-1,164,-1,166,-1,168,170,-1,172,-1,-1,174,-1,-1,-1,176,178,180,-1,182,184,186,-1,-1,-1,-1,-1,-1,-1,-1,-1,-1,-1,-1,-1,-1,-1,-1,-1,-1,-1,-1,-1,-1,-1,-1,-1,-1,-1,-1,-1,-1,-1,-1,-1,-1,-1,-1,-1,-1,-1,-1,-1,-1,-1,-1,-1,-1,-1,-1,-1,-1,-1],"split_conditions":[1E0,1E0,1E0,1E0,1E0,1E0,1E0,6.1E1,1E0,1E0,1E0,1E0,5E0,1E0,1E0,1E0,1E0,1E0,1E0,1E0,1.0201E2,1E0,1E0,1E0,-1.1448474E-2,1E0,8.873E1,1E0,1E0,2E0,-1.894218E-2,1E0,4.149E1,1E1,1E0,1E0,1E0,1E0,1E0,1.9444918E-2,1E0,-6.682882E-3,1E0,1E0,-0E0,1E0,-0E0,1E0,-6.5817917E-3,1E0,5.704541E-3,1E0,1E0,1E0,-9.4783595E-3,-1.7796403E-2,-0E0,-0E0,5.955915E-3,1E0,1E0,1E0,5.864E1,1E0,1E0,1E0,1E0,1E0,1E0,1E0,-0E0,1E0,-8.956239E-3,1E0,1E0,2E0,1E0,4.7364268E-3,-4.3153524E-4,1E0,-0E0,7.497003E-3,-0E0,1.4487051E-2,-0E0,-2.140763E-2,1E0,1E0,1E0,1E0,-3.9307892E-2,1E0,-0E0,1E0,1E0,4.633E1,1E0,1E0,-0E0,5.478687E-3,-0E0,1E0,1E0,-2.9152079E-2,1E0,1E0,1E0,-1.5195232E-2,-0E0,9.099E1,1E0,1E0,5.935521E-3,-2.8211564E-2,-0E0,6E0,-7.416727E-3,1E0,-2.0541071E-3,1E0,1E0,-0E0,1E0,-2.7666055E-3,-0E0,1E0,-0E0,-4.455063E-3,2.479999E-3,1E0,7.607E1,1E0,-0E0,1E0,1E0,1E0,-0E0,1.6156318E-2,-0E0,-6.1661038E-3,7.479581E-3,-1.0046191E-2,-0E0,1.042727E-2,-0E0,-1.9317482E-2,-0E0,2.3378702E-2,1.0443857E-2,7.5941067E-3,-7.831748E-3,1.0232724E-2,-0E0,-2.6646382E-3,-0E0,2.7395536E-3,-0E0,1.0736135E-2,-6.976801E-3,-5.417184E-3,-0E0,-2.4158435E-2,3.4682514E-4,1.5160738E-2,2.414713E-2,1.0351347E-2,-0E0,7.7161323E-3,-0E0,-1.01135075E-2,-0E0,7.1430295E-3,-0E0,-2.5632314E-2,-0E0,-4.8125494E-2,-0E0,-0E0,-2.211272E-3,-1.9144809E-2,-0E0,-2.2525724E-2,-0E0,6.7814426E-3,-2.5076019E-3,-5.846276E-2,-1.382091E-3],"split_indices":[301,528,565,311,771,876,50,3,730,389,276,14,2,989,5,468,66,33,660,734,3,94,19,52,0,60,3,64,30,1,0,888,3,1,908,806,151,43,240,0,326,0,19,314,0,180,0,83,0,255,0,46,370,597,0,0,0,0,0,423,446,516,3,1027,98,37,498,272,17,13,0,495,0,63,509,1,516,0,0,91,0,0,0,0,0,0,37,660,57,804,0,263,0,197,628,3,46,646,0,0,0,324,389,0,965,138,120,0,0,3,13,36,0,0,0,2,0,384,0,70,218,0,427,0,0,89,0,0,0,669,3,963,0,989,68,69,0,0,0,0,0,0,0,0,0,0,0,0,0,0,0,0,0,0,0,0,0,0,0,0,0,0,0,0,0,0,0,0,0,0,0,0,0,0,0,0,0,0,0,0,0,0,0,0,0,0,0],"split_type":[0,0,0,0,0,0,0,0,0,0,0,0,0,0,0,0,0,0,0,0,0,0,0,0,0,0,0,0,0,0,0,0,0,0,0,0,0,0,0,0,0,0,0,0,0,0,0,0,0,0,0,0,0,0,0,0,0,0,0,0,0,0,0,0,0,0,0,0,0,0,0,0,0,0,0,0,0,0,0,0,0,0,0,0,0,0,0,0,0,0,0,0,0,0,0,0,0,0,0,0,0,0,0,0,0,0,0,0,0,0,0,0,0,0,0,0,0,0,0,0,0,0,0,0,0,0,0,0,0,0,0,0,0,0,0,0,0,0,0,0,0,0,0,0,0,0,0,0,0,0,0,0,0,0,0,0,0,0,0,0,0,0,0,0,0,0,0,0,0,0,0,0,0,0,0,0,0,0,0,0,0,0,0,0,0,0,0],"sum_hessian":[1.676E3,1.263E3,4.13E2,1.191E3,7.2E1,1.77E2,2.36E2,9.32E2,2.59E2,3.8E1,3.4E1,1.7E1,1.6E2,2.32E2,4E0,1.19E2,8.13E2,5.2E1,2.07E2,2.9E1,9E0,2.8E1,6E0,1.4E1,3E0,1.8E1,1.42E2,2.26E2,6E0,3E0,1E0,1.05E2,1.4E1,7.93E2,2E1,3.2E1,2E1,1.43E2,6.4E1,1.3E1,1.6E1,4E0,5E0,2.7E1,1E0,5E0,1E0,1.3E1,1E0,1.7E1,1E0,1.07E2,3.5E1,2.23E2,3E0,5E0,1E0,2E0,1E0,7.7E1,2.8E1,1.1E1,3E0,7.68E2,2.5E1,1.2E1,8E0,2.3E1,9E0,1.8E1,2E0,1.4E2,3E0,3.9E1,2.5E1,1.3E1,3E0,4E0,1E0,2.6E1,1E0,4E0,1E0,1.1E1,2E0,1.1E1,6E0,9.8E1,9E0,2.2E1,1.3E1,2.22E2,1E0,6.5E1,1.2E1,2.3E1,5E0,1E1,1E0,2E0,1E0,7.49E2,1.9E1,3E0,2.2E1,7E0,5E0,7E0,1E0,1.6E1,7E0,8E0,1E0,1.7E1,1E0,1.37E2,3E0,3.6E1,3E0,7E0,1.8E1,1E0,1.2E1,2E0,1E0,2.5E1,1E0,4E0,2E0,9.5E1,3E0,7E0,2E0,1.2E1,1E1,2.21E2,1E0,5.9E1,6E0,1E1,2E0,3E0,2E1,4E0,1E0,9E0,1E0,7.13E2,3.6E1,1.1E1,8E0,2E1,2E0,5E0,2E0,4E0,1E0,1.4E1,2E0,6E0,1E0,7E0,1E0,8.5E1,5.2E1,3E1,6E0,6E0,1E0,1.7E1,1E0,1E1,2E0,2.4E1,1E0,9.4E1,1E0,1E0,2E0,5E0,2E0,1E1,2E0,5E0,5E0,2.2E2,1E0],"tree_param":{"num_deleted":"0","num_feature":"1028","num_nodes":"187","size_leaf_vector":"1"}},{"base_weights":[2.928016E-3,5.1015246E-1,-1.4152826E0,-7.609628E-2,5.5032855E-1,-0E0,-1.5667204E0,-5.091522E-1,4.2758024E-1,6.039947E-1,-2.317508E-4,2.8111368E-1,-1.1677859E0,-9.496147E-1,-1.7265685E0,-6.139223E-1,2.9316103E-1,5.177105E-1,-1.4171468E-2,4.0695077E-1,6.8940675E-1,-5.429627E-1,1.3436288E-1,4.5454437E-1,-1.8176974E-1,-8.0106256E-5,-3.750773E-2,-7.045358E-1,-1.3823935E0,-1.8302923E0,-1.1804495E0,-0E0,-7.09265E-1,1.0685908E-2,-0E0,6.49488E-1,-0E0,4.4757614E-1,-1.2579459E-1,1.7719871E-1,7.221732E-1,-5.869723E-1,-0E0,3.3390582E-1,-2.0137423E-1,5.133845E-1,-0E0,-3.402906E-1,9.034388E-3,-7.7657896E-1,1.6769341E-3,-1.6910893E0,-5.243296E-1,-1.8871663E0,-1.0534576E0,-1.7748965E-1,-1.3037643E0,-4.99433E-4,3.3447323E-3,-7.319387E-1,-0E0,7.439004E-1,-1.8754E-1,-4.2739655E-3,2.8727919E-2,4.9353397E-1,-2.7756393E-2,1.7794245E-1,-3.6509582E-1,-1.4662044E-1,7.131985E-1,7.4257404E-1,1.8661126E-1,-6.2992436E-1,-0E0,3.6301547E-1,-2.812507E-3,-3.0819634E-1,4.5273684E-2,5.471438E-1,-0E0,-4.147576E-1,-0E0,-0E0,-8.6218697E-1,3.341949E-3,-1.5665125E-3,-5.2940574E-2,-0E0,-6.1908543E-1,-0E0,-1.8998395E0,-1.8405622E-3,-2.2597703E-1,-1.2895124E0,-1.1716131E-2,4.9163867E-2,-0E0,-1.3313297E0,-7.51639E-1,-0E0,8.105475E-1,2.643447E-2,-0E0,-7.7500176E-3,1.1464405E-3,-0E0,5.339091E-1,-0E0,2.0178612E-1,-1.64752E-1,-0E0,2.153414E-1,-4.4819477E-1,-0E0,-0E0,-2.9766854E-2,2.5430307E-1,4.067369E-2,8.2311386E-1,5.972607E-1,-1.4251344E-1,2.706723E-1,-6.777417E-1,-0E0,4.031375E-1,-2.319495E-3,-0E0,-3.8474786E-1,1.16632044E-1,-0E0,-0E0,5.6457645E-1,-0E0,-1.3239227E-2,3.3096585E-3,-5.137253E-4,-9.224655E-1,5.469552E-3,-0E0,-2.0210417E-2,8.069479E-3,-1.002805E-2,-1.9050002E0,-1.7158365E-3,-0E0,-8.800076E-3,-4.136486E-2,-0E0,-0E0,2.8120135E-3,-1.3710072E0,-2.2336398E-3,-2.3505347E-2,-0E0,2.5307085E-2,-0E0,-0E0,2.0662413E-3,1.7116133E-2,3.16046E-3,-2.858163E-3,1.0632794E-2,-1.178503E-3,8.785704E-3,-6.7685633E-3,1.995735E-3,7.52169E-3,-0E0,-1.4613259E-2,-0E0,-5.9074964E-3,1.5170522E-2,-4.1167503E-3,1.6736059E-2,2.5590826E-2,1.3906838E-2,1.8226143E-2,-1.2954155E-3,1.312232E-4,-8.209217E-3,5.832832E-4,1.1349256E-2,-2.0966066E-2,-0E0,1.2875349E-2,-0E0,-2.581309E-3,-0E0,5.0701795E-4,-0E0,-1.3080359E-2,8.9270825E-4,4.8371498E-3,-0E0,1.9024216E-2,4.2907046E-3,-2.9681224E-2,-8.9485286E-4,-5.7280406E-2,-3.7483238E-3,-4.1930184E-2,-0E0],"categories":[],"categories_nodes":[],"categories_segments":[],"categories_sizes":[],"default_left":[0,0,0,0,0,0,0,0,0,0,0,0,0,0,0,0,0,0,0,0,0,0,0,0,0,0,0,0,0,0,0,0,0,0,0,0,0,0,0,0,0,0,0,0,0,0,0,0,0,0,0,0,0,0,0,0,0,0,0,0,0,0,0,0,0,0,0,0,0,0,0,0,0,0,0,0,0,0,0,0,0,0,0,0,0,0,0,0,0,0,0,0,0,0,0,0,0,0,0,0,0,0,0,0,0,0,0,0,0,0,0,0,0,0,0,0,0,0,0,0,0,0,0,0,0,0,0,0,0,0,0,0,0,0,0,0,0,0,0,0,0,0,0,0,0,0,0,0,0,0,0,0,0,0,0,0,0,0,0,0,0,0,0,0,0,0,0,0,0,0,0,0,0,0,0,0,0,0,0,0,0,0,0,0,0,0,0,0,0,0,0,0,0,0,0,0,0,0,0,0,0,0,0],"id":7,"left_children":[1,3,5,7,9,11,13,15,17,19,21,23,25,27,29,31,33,35,-1,37,39,41,43,45,47,-1,-1,49,51,53,55,57,59,-1,-1,61,63,65,67,69,71,73,-1,75,77,79,-1,81,-1,83,85,87,89,91,93,95,97,-1,-1,99,-1,101,103,-1,105,107,109,111,113,115,117,119,121,123,-1,125,-1,127,129,131,-1,133,-1,135,137,-1,-1,-1,-1,139,141,143,-1,145,147,-1,149,-1,151,153,-1,155,157,-1,-1,-1,-1,159,161,163,165,-1,167,169,-1,171,-1,173,-1,175,177,179,181,183,-1,185,187,189,191,193,-1,-1,195,-1,-1,-1,-1,197,-1,-1,-1,-1,-1,199,-1,-1,-1,-1,-1,-1,-1,201,-1,-1,-1,-1,-1,-1,-1,-1,-1,-1,-1,-1,-1,-1,-1,-1,-1,-1,-1,-1,-1,-1,-1,-1,-1,-1,-1,-1,-1,-1,-1,-1,-1,-1,-1,-1,-1,-1,-1,-1,-1,-1,-1,-1,-1,-1,-1,-1,-1,-1,-1],"loss_changes":[1.2181334E3,2.9715271E1,9.58598E1,1.8143919E1,3.484198E1,1.5276461E1,3.5135925E1,4.302967E0,3.5941052E0,1.683142E1,8.020318E0,3.3522036E0,2.3166275E-1,6.3423615E0,1.2130127E1,2.6571207E0,1.1872089E-1,2.5843344E0,0E0,7.3940353E0,1.1697205E1,7.494798E-1,5.895233E0,8.6094856E-1,1.0666014E0,0E0,0E0,3.4936008E0,4.8004494E0,6.1292114E0,5.8463135E0,5.110679E-2,6.406555E-1,0E0,0E0,2.8489532E0,6.7491606E-2,6.9667816E0,1.9679403E0,8.823644E0,6.8299255E0,7.008281E-1,0E0,8.873892E-1,1.0024861E0,6.315031E-1,0E0,3.9023793E-1,0E0,4.139488E0,8.261768E-2,1.9725456E0,4.2526364E-1,4.362854E0,3.1520615E0,6.436804E-1,1.859436E0,0E0,0E0,4.579811E-1,0E0,8.297148E-1,5.9524253E-2,0E0,3.6201873E-3,5.670517E0,9.284691E-1,1.1542052E-1,6.1199677E-1,4.256163E0,4.1081514E0,6.1011047E0,9.435586E-1,3.3191538E-1,0E0,9.791517E-1,0E0,6.809788E-1,8.83272E-2,1.6575909E-1,0E0,9.804249E-3,0E0,6.202761E-2,3.9174652E0,0E0,0E0,0E0,0E0,1.8136358E-1,5.5226105E-1,1.0737305E0,0E0,1.937966E-1,2.1503792E0,0E0,1.42726395E-2,0E0,1.516716E0,4.358101E-1,0E0,5.993271E-1,1.5481E-2,0E0,0E0,0E0,0E0,3.6232224E0,8.096262E-1,3.6933932E-1,3.9110667E-1,0E0,1.020391E-1,2.3587656E-1,0E0,3.1157465E0,0E0,2.0273912E0,0E0,3.0789185E0,1.9604111E0,2.5259277E-1,4.6244872E-1,3.5092354E-2,0E0,5.094538E-1,3.6985263E-2,1.142521E-3,6.540611E-1,7.316032E-2,0E0,0E0,1.3382292E-1,0E0,0E0,0E0,0E0,2.3579102E0,0E0,0E0,0E0,0E0,0E0,3.4716797E-1,0E0,0E0,0E0,0E0,0E0,0E0,0E0,1.516449E0,0E0,0E0,0E0,0E0,0E0,0E0,0E0,0E0,0E0,0E0,0E0,0E0,0E0,0E0,0E0,0E0,0E0,0E0,0E0,0E0,0E0,0E0,0E0,0E0,0E0,0E0,0E0,0E0,0E0,0E0,0E0,0E0,0E0,0E0,0E0,0E0,0E0,0E0,0E0,0E0,0E0,0E0,0E0,0E0,0E0,0E0,0E0,0E0,0E0,0E0,0E0],"parents":[2147483647,0,0,1,1,2,2,3,3,4,4,5,5,6,6,7,7,8,8,9,9,10,10,11,11,12,12,13,13,14,14,15,15,16,16,17,17,19,19,20,20,21,21,22,22,23,23,24,24,27,27,28,28,29,29,30,30,31,31,32,32,35,35,36,36,37,37,38,38,39,39,40,40,41,41,43,43,44,44,45,45,47,47,49,49,50,50,51,51,52,52,53,53,54,54,55,55,56,56,59,59,61,61,62,62,64,64,65,65,66,66,67,67,68,68,69,69,70,70,71,71,72,72,73,73,75,75,77,77,78,78,79,79,81,81,83,83,84,84,89,89,90,90,91,91,93,93,94,94,96,96,98,98,99,99,101,101,102,102,107,107,108,108,109,109,110,110,112,112,113,113,115,115,117,117,119,119,120,120,121,121,122,122,123,123,125,125,126,126,127,127,128,128,129,129,132,132,137,137,143,143,151,151],"right_children":[2,4,6,8,10,12,14,16,18,20,22,24,26,28,30,32,34,36,-1,38,40,42,44,46,48,-1,-1,50,52,54,56,58,60,-1,-1,62,64,66,68,70,72,74,-1,76,78,80,-1,82,-1,84,86,88,90,92,94,96,98,-1,-1,100,-1,102,104,-1,106,108,110,112,114,116,118,120,122,124,-1,126,-1,128,130,132,-1,134,-1,136,138,-1,-1,-1,-1,140,142,144,-1,146,148,-1,150,-1,152,154,-1,156,158,-1,-1,-1,-1,160,162,164,166,-1,168,170,-1,172,-1,174,-1,176,178,180,182,184,-1,186,188,190,192,194,-1,-1,196,-1,-1,-1,-1,198,-1,-1,-1,-1,-1,200,-1,-1,-1,-1,-1,-1,-1,202,-1,-1,-1,-1,-1,-1,-1,-1,-1,-1,-1,-1,-1,-1,-1,-1,-1,-1,-1,-1,-1,-1,-1,-1,-1,-1,-1,-1,-1,-1,-1,-1,-1,-1,-1,-1,-1,-1,-1,-1,-1,-1,-1,-1,-1,-1,-1,-1,-1,-1,-1],"split_conditions":[1E0,1E0,1E0,1E0,1E0,1E0,4.9658E2,1E0,1E0,7.433E1,1E0,1E0,4.65403E2,1E0,8.873E1,3.2644E2,2.954E1,1E0,-1.4171468E-2,1E0,1E0,4.76412E2,1E0,1E0,5.29461E2,-8.0106256E-5,-3.750773E-2,1E0,4.81018E2,1E0,5.1701E2,2.80397E2,1E0,1.0685908E-2,-0E0,1E0,7.306E1,1E0,1E0,1E0,1E0,1E0,-0E0,1E0,1E0,1E0,-0E0,1E0,9.034388E-3,4.05904E2,1E0,1E0,4.92557E2,1E0,5.09946E2,9.432E1,1E0,-4.99433E-4,3.3447323E-3,1E0,-0E0,1E0,3.75559E2,-4.2739655E-3,1E0,1E0,4.08936E2,3.1276E2,1E0,1E0,1E0,1E0,1E0,1E0,-0E0,1E0,-2.812507E-3,4.75995E2,1E0,1E0,-0E0,4.16497E2,-0E0,1E0,1.0523E2,3.341949E-3,-1.5665125E-3,-5.2940574E-2,-0E0,4.844E2,1E0,1E0,-1.8405622E-3,5.09603E2,5.93495E2,-1.1716131E-2,1E0,-0E0,1E0,5.826E1,-0E0,1E0,3.75559E2,-0E0,-7.7500176E-3,1.1464405E-3,-0E0,1E0,1E0,3.60377E2,1E0,-0E0,1E0,1E0,-0E0,1E0,-2.9766854E-2,4.32527E2,4.067369E-2,1E0,1E0,2.92442E2,1E0,1E0,-0E0,1E0,1E0,9.546E1,1E0,1E0,-0E0,-0E0,1E0,-0E0,-1.3239227E-2,3.3096585E-3,-5.137253E-4,1E0,5.469552E-3,-0E0,-2.0210417E-2,8.069479E-3,-1.002805E-2,1E0,-1.7158365E-3,-0E0,-8.800076E-3,-4.136486E-2,-0E0,-0E0,2.8120135E-3,1E0,-2.2336398E-3,-2.3505347E-2,-0E0,2.5307085E-2,-0E0,-0E0,2.0662413E-3,1.7116133E-2,3.16046E-3,-2.858163E-3,1.0632794E-2,-1.178503E-3,8.785704E-3,-6.7685633E-3,1.995735E-3,7.52169E-3,-0E0,-1.4613259E-2,-0E0,-5.9074964E-3,1.5170522E-2,-4.1167503E-3,1.6736059E-2,2.5590826E-2,1.3906838E-2,1.8226143E-2,-1.2954155E-3,1.312232E-4,-8.209217E-3,5.832832E-4,1.1349256E-2,-2.0966066E-2,-0E0,1.2875349E-2,-0E0,-2.581309E-3,-0E0,5.0701795E-4,-0E0,-1.3080359E-2,8.9270825E-4,4.8371498E-3,-0E0,1.9024216E-2,4.2907046E-3,-2.9681224E-2,-8.9485286E-4,-5.7280406E-2,-3.7483238E-3,-4.1930184E-2,-0E0],"split_indices":[640,1,384,654,954,804,0,17,43,3,730,40,0,565,3,0,3,129,0,791,730,0,502,1025,0,0,0,46,0,54,0,0,239,0,0,102,3,666,835,460,164,122,0,568,37,33,0,13,0,0,788,263,0,416,0,3,84,0,0,224,0,104,0,0,106,66,0,0,37,318,5,433,98,291,0,384,0,0,216,37,0,0,0,894,3,0,0,0,0,0,19,459,0,0,0,0,5,0,310,3,0,54,0,0,0,0,0,46,1023,0,366,0,7,138,0,897,0,0,0,108,858,0,15,419,0,784,220,3,87,7,0,0,597,0,0,0,0,255,0,0,0,0,0,103,0,0,0,0,0,0,0,168,0,0,0,0,0,0,0,0,0,0,0,0,0,0,0,0,0,0,0,0,0,0,0,0,0,0,0,0,0,0,0,0,0,0,0,0,0,0,0,0,0,0,0,0,0,0,0,0,0,0,0],"split_type":[0,0,0,0,0,0,0,0,0,0,0,0,0,0,0,0,0,0,0,0,0,0,0,0,0,0,0,0,0,0,0,0,0,0,0,0,0,0,0,0,0,0,0,0,0,0,0,0,0,0,0,0,0,0,0,0,0,0,0,0,0,0,0,0,0,0,0,0,0,0,0,0,0,0,0,0,0,0,0,0,0,0,0,0,0,0,0,0,0,0,0,0,0,0,0,0,0,0,0,0,0,0,0,0,0,0,0,0,0,0,0,0,0,0,0,0,0,0,0,0,0,0,0,0,0,0,0,0,0,0,0,0,0,0,0,0,0,0,0,0,0,0,0,0,0,0,0,0,0,0,0,0,0,0,0,0,0,0,0,0,0,0,0,0,0,0,0,0,0,0,0,0,0,0,0,0,0,0,0,0,0,0,0,0,0,0,0,0,0,0,0,0,0,0,0,0,0,0,0,0,0,0,0],"sum_hessian":[1.69E3,1.246E3,4.44E2,7.9E1,1.167E3,4.3E1,4.01E2,4.3E1,3.6E1,1.064E3,1.03E2,3.6E1,7E0,8.6E1,3.15E2,3.9E1,4E0,3.4E1,2E0,3.27E2,7.37E2,2E1,8.3E1,2.7E1,9E0,1E0,6E0,5.9E1,2.7E1,2.6E2,5.5E1,5E0,3.4E1,3E0,1E0,2.7E1,7E0,3.05E2,2.2E1,4.6E1,6.91E2,1.9E1,1E0,5.3E1,3E1,2.4E1,3E0,8E0,1E0,5.4E1,5E0,1.8E1,9E0,2.39E2,2.1E1,7E0,4.8E1,3E0,2E0,3.3E1,1E0,2.5E1,2E0,1E0,6E0,2.79E2,2.6E1,9E0,1.3E1,2.9E1,1.7E1,6.64E2,2.7E1,1.8E1,1E0,5.1E1,2E0,2.2E1,8E0,2.3E1,1E0,7E0,1E0,5E0,4.9E1,4E0,1E0,1.7E1,1E0,7E0,2E0,2.37E2,2E0,6E0,1.5E1,4E0,3E0,1E0,4.7E1,3.2E1,1E0,2.2E1,3E0,1E0,1E0,5E0,1E0,2.58E2,2.1E1,8E0,1.8E1,1E0,8E0,1.1E1,2E0,2.6E1,3E0,1.2E1,5E0,4.19E2,2.45E2,4E0,2.3E1,1.6E1,2E0,4.7E1,4E0,4E0,1.8E1,6E0,2E0,1E0,2.2E1,1E0,6E0,3E0,2E0,4.7E1,2E0,1E0,6E0,1E0,1E0,2.36E2,1E0,1E0,5E0,1.4E1,1E0,2E0,1E0,4.5E1,2E0,3E1,2E0,2.1E1,1E0,1E0,2E0,2.36E2,2.2E1,1.8E1,3E0,1E0,7E0,1.6E1,2E0,7E0,1E0,1E1,1E0,1.9E1,7E0,5E0,7E0,3.83E2,3.6E1,2.42E2,3E0,1E0,3E0,9E0,1.4E1,1.5E1,1E0,4.4E1,3E0,3E0,1E0,2E0,2E0,1.7E1,1E0,5E0,1E0,1.7E1,5E0,4.3E1,4E0,2.35E2,1E0,4.4E1,1E0],"tree_param":{"num_deleted":"0","num_feature":"1028","num_nodes":"203","size_leaf_vector":"1"}},{"base_weights":[9.282762E-3,4.861469E-1,-1.470148E0,5.220857E-1,-1.2089056E-1,-1.0279285E0,-1.7545714E0,5.4124826E-1,-8.0726355E-2,1.8557261E-1,-7.318871E-1,2.1233314E-1,-1.1393538E0,-1.7753761E0,-0E0,5.7133716E-1,1.00100964E-1,1.09636456E-1,-3.8742977E-1,3.4608462E-1,-2.7370447E-1,-7.8689814E-1,8.837819E-4,4.6366933E-1,-1.1274208E-2,-8.2425094E-1,-1.5221634E0,-1.7892739E0,-8.943961E-3,5.728996E-3,-5.858098E-3,5.9661734E-1,9.189517E-2,2.7509734E-1,-1.4005151E-1,-1.6303992E-1,1.8792737E-1,-4.5241958E-1,8.7417365E-4,1.2961504E-1,2.2554984E-2,1.2199836E-2,-6.091464E-1,-8.24777E-1,-0E0,-0E0,1.6068626E-2,-5.791605E-1,-1.5389093E0,-1.5709345E0,-0E0,-1.7959975E0,-0E0,4.74327E-1,6.919302E-1,2.2041696E-1,-3.036298E-2,3.3805624E-1,-5.3841323E-2,1.0279843E-1,-2.3257253E-1,-8.38362E-3,-0E0,1.2389553E-2,-8.030117E-3,-4.7641948E-1,-0E0,2.2671469E-1,-1.5503094E-1,-0E0,-2.0011421E-2,-8.5103524E-1,-0E0,-7.184821E-1,-1.8714237E-1,-1.5975319E0,-0E0,-1.6088139E0,-2.2001339E-3,-1.8023136E0,-0E0,4.9797747E-1,-1.7393234E-1,7.019151E-1,-2.8781094E-2,4.054949E-1,-2.3858002E-1,-0E0,3.5477257E-1,-3.6474776E-3,-0E0,5.62294E-3,-0E0,-0E0,-3.0481118E-1,-8.7454125E-2,2.086349E-3,-0E0,-4.9775022E-1,3.2138634E-1,-0E0,-5.5057597E-3,-0E0,-2.6257249E-2,-0E0,-9.003427E-1,-1.8823548E-1,-2.8896365E-1,5.239062E-3,-4.9539734E-2,-7.547188E-4,-4.8984624E-2,-0E0,-1.8121214E0,-5.9249746E-3,1.5480253E-2,-2.9308728E-3,1.0465622E-2,-1.4747071E-2,2.2212798E-2,5.4351403E-3,1.5749404E-2,-4.23573E-3,-5.90986E-5,-1.6468205E-2,1.101062E-2,-0E0,-0E0,1.9792789E-3,-1.0402897E-2,3.4230232E-4,-3.4974343E-3,-0E0,-1.5619005E-2,-0E0,1.0922122E-2,-0E0,2.2330265E-3,-9.663442E-4,-0E0,-2.876604E-2,2.7838943E-3,-7.5803143E-3,-1.41975805E-2,2.7224063E-3,-5.4529246E-2,-1.4856577E-4],"categories":[],"categories_nodes":[],"categories_segments":[],"categories_sizes":[],"default_left":[0,0,0,0,0,0,0,0,0,0,0,0,0,0,0,0,0,0,0,0,0,0,0,0,0,0,0,0,0,0,0,0,0,0,0,0,0,0,0,0,0,0,0,0,0,0,0,0,0,0,0,0,0,0,0,0,0,0,0,0,0,0,0,0,0,0,0,0,0,0,0,0,0,0,0,0,0,0,0,0,0,0,0,0,0,0,0,0,0,0,0,0,0,0,0,0,0,0,0,0,0,0,0,0,0,0,0,0,0,0,0,0,0,0,0,0,0,0,0,0,0,0,0,0,0,0,0,0,0,0,0,0,0,0,0,0,0,0,0,0,0,0,0,0,0,0,0],"id":8,"left_children":[1,3,5,7,9,11,13,15,17,19,21,23,25,27,29,31,33,35,37,39,41,43,-1,45,-1,47,49,51,-1,-1,-1,53,55,57,59,61,63,65,-1,67,-1,-1,69,71,-1,-1,-1,73,75,77,-1,79,-1,81,83,85,-1,87,89,91,93,-1,-1,-1,95,97,-1,99,101,-1,-1,103,-1,105,107,109,-1,111,-1,113,-1,115,117,119,-1,121,123,-1,125,-1,-1,-1,-1,127,129,131,-1,-1,133,135,137,-1,-1,-1,-1,139,141,143,-1,-1,-1,-1,-1,145,-1,-1,-1,-1,-1,-1,-1,-1,-1,-1,-1,-1,-1,-1,-1,-1,-1,-1,-1,-1,-1,-1,-1,-1,-1,-1,-1,-1,-1,-1,-1,-1,-1],"loss_changes":[1.1868618E3,2.8098846E1,4.6570435E1,1.4213989E1,1.4026644E1,2.388797E1,8.6102295E0,1.5040253E1,2.4424765E0,3.837895E0,1.4721441E0,2.609745E0,1.47730255E1,2.878296E0,2.6192605E-1,1.276944E1,3.422592E0,5.86077E-1,6.7117023E-1,2.7020001E0,3.5635767E0,7.8490543E-1,0E0,2.8902626E-1,0E0,1.2747288E1,5.020706E0,2.5598145E0,0E0,0E0,0E0,1.0824249E1,8.279793E0,1.1518621E0,8.5417116E-1,1.7946805E-1,1.1352468E0,1.0740471E-1,0E0,8.8003004E-1,0E0,0E0,2.9397655E-1,2.8782654E-1,0E0,0E0,0E0,3.1014328E0,1.3090858E0,2.553543E0,0E0,2.1835327E0,0E0,7.4184647E0,1.0698669E1,4.864255E0,0E0,3.4897995E-1,6.550285E-2,8.054487E-2,5.4476774E-1,0E0,0E0,0E0,9.505447E-2,4.316187E-2,0E0,4.7043705E-1,3.384714E-2,0E0,0E0,1.532669E-1,0E0,3.9383068E0,9.684976E-1,7.7031326E-1,0E0,2.1588593E0,0E0,2.0253906E0,0E0,5.111E0,3.2372837E0,1.0762207E1,0E0,2.9529753E0,8.9733166E-1,0E0,2.1891928E-1,0E0,0E0,0E0,0E0,1.7411312E-2,4.5417857E-1,4.583823E-2,0E0,0E0,3.18923E-2,2.0303857E-1,2.9424867E-2,0E0,0E0,0E0,0E0,2.0783367E0,4.1659808E-1,1.6066986E0,0E0,0E0,0E0,0E0,0E0,1.4251099E0,0E0,0E0,0E0,0E0,0E0,0E0,0E0,0E0,0E0,0E0,0E0,0E0,0E0,0E0,0E0,0E0,0E0,0E0,0E0,0E0,0E0,0E0,0E0,0E0,0E0,0E0,0E0,0E0,0E0,0E0,0E0,0E0,0E0],"parents":[2147483647,0,0,1,1,2,2,3,3,4,4,5,5,6,6,7,7,8,8,9,9,10,10,11,11,12,12,13,13,14,14,15,15,16,16,17,17,18,18,19,19,20,20,21,21,23,23,25,25,26,26,27,27,31,31,32,32,33,33,34,34,35,35,36,36,37,37,39,39,42,42,43,43,47,47,48,48,49,49,51,51,53,53,54,54,55,55,57,57,58,58,59,59,60,60,64,64,65,65,67,67,68,68,71,71,73,73,74,74,75,75,77,77,79,79,81,81,82,82,83,83,85,85,86,86,88,88,93,93,94,94,95,95,98,98,99,99,100,100,105,105,106,106,107,107,113,113],"right_children":[2,4,6,8,10,12,14,16,18,20,22,24,26,28,30,32,34,36,38,40,42,44,-1,46,-1,48,50,52,-1,-1,-1,54,56,58,60,62,64,66,-1,68,-1,-1,70,72,-1,-1,-1,74,76,78,-1,80,-1,82,84,86,-1,88,90,92,94,-1,-1,-1,96,98,-1,100,102,-1,-1,104,-1,106,108,110,-1,112,-1,114,-1,116,118,120,-1,122,124,-1,126,-1,-1,-1,-1,128,130,132,-1,-1,134,136,138,-1,-1,-1,-1,140,142,144,-1,-1,-1,-1,-1,146,-1,-1,-1,-1,-1,-1,-1,-1,-1,-1,-1,-1,-1,-1,-1,-1,-1,-1,-1,-1,-1,-1,-1,-1,-1,-1,-1,-1,-1,-1,-1,-1,-1],"split_conditions":[1E0,1E0,1E0,1E0,1E0,1E0,1E0,1E0,4.37949E2,1E0,1E0,1E0,5.20026E2,1E0,4.56877E2,1E0,4.82524E2,3.60377E2,1E0,1E0,1E0,1E0,8.837819E-4,4.15914E2,-1.1274208E-2,1E0,1E0,1E0,-8.943961E-3,5.728996E-3,-5.858098E-3,6E0,1E0,1E0,1E0,1E0,4.08936E2,1E0,8.7417365E-4,1E0,2.2554984E-2,1.2199836E-2,3.78428E2,1E0,-0E0,-0E0,1.6068626E-2,1E0,1E0,1E0,-0E0,1E0,-0E0,1E0,1E0,1E0,-3.036298E-2,5E0,1E0,1E0,1E0,-8.38362E-3,-0E0,1.2389553E-2,1E0,4.44956E2,-0E0,4.10796E3,1E0,-0E0,-2.0011421E-2,1E0,-0E0,1E0,1E0,2E0,-0E0,1E0,-2.2001339E-3,1E0,-0E0,1E0,1E0,1E0,-2.8781094E-2,1E0,1E0,-0E0,1E0,-3.6474776E-3,-0E0,5.62294E-3,-0E0,4.92613E2,1E0,1E0,2.086349E-3,-0E0,1E0,1E0,5.6E1,-5.5057597E-3,-0E0,-2.6257249E-2,-0E0,4.05904E2,1E0,6E0,5.239062E-3,-4.9539734E-2,-7.547188E-4,-4.8984624E-2,-0E0,1E0,-5.9249746E-3,1.5480253E-2,-2.9308728E-3,1.0465622E-2,-1.4747071E-2,2.2212798E-2,5.4351403E-3,1.5749404E-2,-4.23573E-3,-5.90986E-5,-1.6468205E-2,1.101062E-2,-0E0,-0E0,1.9792789E-3,-1.0402897E-2,3.4230232E-4,-3.4974343E-3,-0E0,-1.5619005E-2,-0E0,1.0922122E-2,-0E0,2.2330265E-3,-9.663442E-4,-0E0,-2.876604E-2,2.7838943E-3,-7.5803143E-3,-1.41975805E-2,2.7224063E-3,-5.4529246E-2,-1.4856577E-4],"split_indices":[301,527,565,666,493,49,69,1027,0,547,87,14,0,64,0,727,0,0,61,879,1023,239,0,0,0,127,660,244,0,0,0,2,804,553,389,15,0,145,0,702,0,0,0,100,0,0,0,589,98,310,0,263,0,319,855,740,0,2,58,726,118,0,0,0,364,0,0,0,44,0,0,752,0,743,60,1,0,168,0,424,0,653,118,781,0,43,699,0,545,0,0,0,0,0,298,19,0,0,77,771,1,0,0,0,0,0,107,2,0,0,0,0,0,622,0,0,0,0,0,0,0,0,0,0,0,0,0,0,0,0,0,0,0,0,0,0,0,0,0,0,0,0,0,0,0,0,0],"split_type":[0,0,0,0,0,0,0,0,0,0,0,0,0,0,0,0,0,0,0,0,0,0,0,0,0,0,0,0,0,0,0,0,0,0,0,0,0,0,0,0,0,0,0,0,0,0,0,0,0,0,0,0,0,0,0,0,0,0,0,0,0,0,0,0,0,0,0,0,0,0,0,0,0,0,0,0,0,0,0,0,0,0,0,0,0,0,0,0,0,0,0,0,0,0,0,0,0,0,0,0,0,0,0,0,0,0,0,0,0,0,0,0,0,0,0,0,0,0,0,0,0,0,0,0,0,0,0,0,0,0,0,0,0,0,0,0,0,0,0,0,0,0,0,0,0,0,0],"sum_hessian":[1.679E3,1.271E3,4.08E2,1.201E3,7E1,1.64E2,2.44E2,1.165E3,3.6E1,4.7E1,2.3E1,1.3E1,1.51E2,2.41E2,3E0,1.089E3,7.6E1,2.2E1,1.4E1,3.6E1,1.1E1,2.2E1,1E0,1E1,3E0,8.7E1,6.4E1,2.38E2,3E0,1E0,2E0,1.033E3,5.6E1,4.5E1,3.1E1,3E0,1.9E1,1.3E1,1E0,2.6E1,1E1,3E0,8E0,2.1E1,1E0,2E0,8E0,6.8E1,1.9E1,6.2E1,2E0,2.37E2,1E0,4.6E2,5.73E2,5.2E1,4E0,3.9E1,6E0,7E0,2.4E1,2E0,1E0,9E0,1E1,1.2E1,1E0,2.1E1,5E0,1E0,7E0,2E1,1E0,4.8E1,2E1,1.8E1,1E0,6E1,2E0,2.36E2,1E0,4.45E2,1.5E1,5.71E2,2E0,3.8E1,1.4E1,1E0,3.8E1,4E0,2E0,3E0,4E0,5E0,1.9E1,8E0,2E0,1E0,1.1E1,1.4E1,7E0,4E0,1E0,1.9E1,1E0,3.4E1,1.4E1,1.7E1,3E0,1.7E1,1E0,5.9E1,1E0,2.34E2,2E0,4.33E2,1.2E1,5E0,1E1,5.3E2,4.1E1,3.2E1,6E0,1E1,4E0,3.7E1,1E0,3E0,2E0,1.8E1,1E0,7E0,1E0,1E1,1E0,1.2E1,2E0,2E0,5E0,2E0,3.2E1,1E0,1.3E1,1.2E1,5E0,2.33E2,1E0],"tree_param":{"num_deleted":"0","num_feature":"1028","num_nodes":"147","size_leaf_vector":"1"}},{"base_weights":[5.3425347E-3,4.785497E-1,-1.4097011E0,5.183283E-1,-1.507438E-1,-8.959511E-1,-1.692725E0,5.5241275E-1,8.959032E-2,1.3892837E-1,-6.647598E-1,1.969297E-1,-1.012456E0,-1.707538E0,6.296277E-3,3.6079937E-1,6.499923E-1,4.4756436E-1,-1.1770752E-2,-5.736498E-1,2.9691282E-1,-7.111396E-1,8.7494374E-4,4.2277595E-1,-1.1071274E-2,-1.250233E0,-5.569355E-1,-1.8059188E0,-1.2042315E0,-0E0,1.2272787E-3,4.0555775E-1,-1.258795E-1,6.658704E-1,-4.4326162E-1,6.9896173E-1,1.00856066E-1,2.5838414E-1,-1.904551E-1,-0E0,-1.8269103E-2,4.0072605E-2,6.0713613E-1,-0E0,-7.47347E-1,1.4838041E-2,-0E0,-1.4303263E0,-4.0985543E-1,-6.4617723E-1,3.29383E-2,-1.8109975E0,-2.1400594E-3,-4.7351718E-5,-1.2438596E0,4.4924095E-1,-3.1441014E-2,1.1228302E-2,-4.4732103E-1,6.885774E-1,1.7626218E-1,-1.1865087E0,1.4648412E-2,2.6757516E-2,3.194461E-4,-5.7296274E-5,1.9109136E-1,2.8058407E-1,-0E0,-2.2591557E-3,-4.447202E-1,1.3327625E-1,-5.3867726E-3,7.8155303E-1,-8.072983E-3,-7.806135E-1,-0E0,-1.5207931E0,-2.638932E-1,-7.371713E-2,-2.373349E-2,-3.5957888E-1,-8.3815354E-1,8.930971E-3,-1.4499775E-1,-1.8157502E0,-2.9391048E-3,-0E0,-1.2724837E0,4.8806083E-1,8.7274194E-2,-1.921853E-1,3.665022E-1,-5.2221745E-1,5.506079E-3,7.0374596E-1,1.7630719E-1,4.0062556E-1,-1.8180081E-1,-3.014326E-4,-3.8877085E-2,8.386846E-3,-0E0,2.9909343E-1,-0E0,1.1173042E-1,-1.9820485E-1,-5.3942883E-1,-0E0,2.1273747E-1,-0E0,2.4270715E-2,-0E0,-8.028434E-1,-0E0,3.1844137E-4,-1.5523722E0,1.2343973E-3,-4.62622E-1,-3.191402E-1,7.069695E-3,-4.0863952E-1,-0E0,-9.2524135E-1,-1.9705916E-2,-5.6317216E-3,-0E0,-1.8203547E0,-3.3499359E-3,-1.3155593E0,-7.992303E-4,1.566611E-2,1.7429203E-3,-5.180944E-3,5.9934277E-3,-1.3002529E-3,-1.6972275E-2,-0E0,1.3411259E-2,-0E0,-1.9308832E-2,2.1483935E-2,3.8018993E-3,-0E0,2.1594195E-2,1.4028042E-2,-7.8930974E-4,1.9786535E-3,-9.20451E-3,9.3732355E-3,-0E0,6.4300206E-3,-2.4476445E-3,-7.6066884E-3,-0E0,-1.6921816E-2,-0E0,-5.185437E-4,1.0374212E-3,7.439975E-3,-0E0,-0E0,-1.961937E-3,-0E0,-2.4728425E-2,-4.7476564E-2,-0E0,-1.701742E-2,-0E0,-1.1440564E-2,-0E0,-0E0,-1.4144787E-2,-3.251304E-2,-9.431331E-3,-3.0104541E-3,-0E0,-5.474748E-2,-3.5332702E-3,-4.0265303E-2,-0E0],"categories":[],"categories_nodes":[],"categories_segments":[],"categories_sizes":[],"default_left":[0,0,0,0,0,0,0,0,0,0,0,0,0,0,0,0,0,0,0,0,0,0,0,0,0,0,0,0,0,0,0,0,0,0,0,0,0,0,0,0,0,0,0,0,0,0,0,0,0,0,0,0,0,0,0,0,0,0,0,0,0,0,0,0,0,0,0,0,0,0,0,0,0,0,0,0,0,0,0,0,0,0,0,0,0,0,0,0,0,0,0,0,0,0,0,0,0,0,0,0,0,0,0,0,0,0,0,0,0,0,0,0,0,0,0,0,0,0,0,0,0,0,0,0,0,0,0,0,0,0,0,0,0,0,0,0,0,0,0,0,0,0,0,0,0,0,0,0,0,0,0,0,0,0,0,0,0,0,0,0,0,0,0,0,0,0,0,0,0,0,0,0,0,0,0,0,0,0,0,0,0],"id":9,"left_children":[1,3,5,7,9,11,13,15,17,19,21,23,25,27,29,31,33,35,37,39,41,43,-1,45,-1,47,49,51,53,-1,-1,55,57,59,61,63,65,67,69,-1,-1,71,73,-1,75,-1,-1,77,79,81,83,85,-1,-1,87,89,91,-1,93,95,97,99,-1,-1,-1,-1,101,103,-1,105,107,109,-1,111,-1,113,-1,115,117,119,-1,121,123,-1,125,127,-1,-1,129,131,133,135,137,139,-1,141,143,145,147,-1,-1,-1,-1,149,-1,151,153,155,157,159,161,-1,-1,163,-1,-1,165,-1,167,169,-1,171,-1,173,175,-1,-1,177,-1,179,-1,-1,-1,-1,-1,-1,-1,-1,-1,-1,-1,-1,-1,-1,-1,-1,-1,-1,-1,-1,-1,-1,-1,-1,-1,-1,-1,-1,-1,-1,-1,-1,-1,-1,-1,-1,-1,-1,-1,-1,-1,-1,-1,-1,-1,-1,-1,-1,-1,-1,-1],"loss_changes":[1.114443E3,3.1580566E1,5.6305725E1,1.675061E1,1.1614834E1,2.02874E1,7.5667725E0,1.9349823E1,3.49405E0,5.718517E0,1.2836218E0,2.3840747E0,1.2759232E1,7.2175293E0,4.8621376E-3,8.366985E0,1.3130524E1,1.289495E0,3.4918008E0,5.0895214E-3,2.9742055E0,8.6728954E-1,0E0,3.673222E-1,0E0,1.1377274E1,3.0865383E0,7.032471E-1,1.7562943E0,0E0,0E0,6.784855E0,5.516037E0,7.1849365E0,9.123837E0,9.90675E-1,2.0659804E-1,2.5629413E-1,1.9278257E0,0E0,0E0,5.5695295E-1,3.427802E0,0E0,7.1221924E-1,0E0,0E0,5.90271E0,1.8859167E0,1.3292942E0,5.395658E-1,4.3780518E-1,0E0,0E0,1.8381271E0,4.025261E0,2.1006613E0,0E0,1.3532605E0,4.5490723E0,3.066848E0,2.2186852E-1,0E0,0E0,0E0,0E0,2.1843934E-1,2.0023847E-1,0E0,7.3526543E-1,8.047826E-1,3.0584466E-1,0E0,4.4591904E-2,0E0,2.3544407E-1,0E0,3.9956207E0,7.337698E-1,1.1792133E0,0E0,5.328815E-1,1.2729797E0,0E0,3.5839558E-2,3.0664062E-1,0E0,0E0,1.7810822E0,3.7743073E0,1.0769987E0,1.0364567E0,1.9001102E-1,1.5881429E0,0E0,4.0637207E0,2.3937912E0,9.0292215E-1,5.9453213E-1,0E0,0E0,0E0,0E0,1.14608526E-1,0E0,4.5838046E-1,1.3220078E-1,8.9549065E-2,5.679593E-3,1.8219179E-1,1.2830655E-2,0E0,0E0,1.5771484E-1,0E0,0E0,3.6452942E0,0E0,3.2473302E-1,2.4678141E-1,0E0,4.947884E-1,0E0,7.499409E-1,3.833765E-2,0E0,0E0,2.5305176E-1,0E0,1.3819656E0,0E0,0E0,0E0,0E0,0E0,0E0,0E0,0E0,0E0,0E0,0E0,0E0,0E0,0E0,0E0,0E0,0E0,0E0,0E0,0E0,0E0,0E0,0E0,0E0,0E0,0E0,0E0,0E0,0E0,0E0,0E0,0E0,0E0,0E0,0E0,0E0,0E0,0E0,0E0,0E0,0E0,0E0,0E0,0E0,0E0,0E0,0E0,0E0,0E0,0E0,0E0],"parents":[2147483647,0,0,1,1,2,2,3,3,4,4,5,5,6,6,7,7,8,8,9,9,10,10,11,11,12,12,13,13,14,14,15,15,16,16,17,17,18,18,19,19,20,20,21,21,23,23,25,25,26,26,27,27,28,28,31,31,32,32,33,33,34,34,35,35,36,36,37,37,38,38,41,41,42,42,44,44,47,47,48,48,49,49,50,50,51,51,54,54,55,55,56,56,58,58,59,59,60,60,61,61,66,66,67,67,69,69,70,70,71,71,73,73,75,75,77,77,78,78,79,79,81,81,82,82,84,84,85,85,88,88,89,89,90,90,91,91,92,92,93,93,95,95,96,96,97,97,98,98,103,103,105,105,106,106,107,107,108,108,109,109,110,110,113,113,116,116,118,118,119,119,121,121,123,123,124,124,127,127,129,129],"right_children":[2,4,6,8,10,12,14,16,18,20,22,24,26,28,30,32,34,36,38,40,42,44,-1,46,-1,48,50,52,54,-1,-1,56,58,60,62,64,66,68,70,-1,-1,72,74,-1,76,-1,-1,78,80,82,84,86,-1,-1,88,90,92,-1,94,96,98,100,-1,-1,-1,-1,102,104,-1,106,108,110,-1,112,-1,114,-1,116,118,120,-1,122,124,-1,126,128,-1,-1,130,132,134,136,138,140,-1,142,144,146,148,-1,-1,-1,-1,150,-1,152,154,156,158,160,162,-1,-1,164,-1,-1,166,-1,168,170,-1,172,-1,174,176,-1,-1,178,-1,180,-1,-1,-1,-1,-1,-1,-1,-1,-1,-1,-1,-1,-1,-1,-1,-1,-1,-1,-1,-1,-1,-1,-1,-1,-1,-1,-1,-1,-1,-1,-1,-1,-1,-1,-1,-1,-1,-1,-1,-1,-1,-1,-1,-1,-1,-1,-1,-1,-1,-1,-1],"split_conditions":[1E0,1E0,5.12535E2,1E0,1E0,1E0,1E0,7.433E1,1E0,1E0,1E0,1E0,1E0,8.873E1,5.1701E2,1E0,1E0,1E0,1E0,1E0,1E0,3.89456E2,8.7494374E-4,1E0,-1.1071274E-2,1E0,9.309E1,1E0,5.1701E2,-0E0,1.2272787E-3,1E0,1E0,1E0,1E0,1E0,4.61563E2,1E0,1E0,-0E0,-1.8269103E-2,1E0,1E0,-0E0,1E0,1.4838041E-2,-0E0,8.873E1,4.88391E2,1E0,1E0,7E0,-2.1400594E-3,-4.7351718E-5,1E0,1E0,1E0,1.1228302E-2,1E0,1E0,1E0,4.65403E2,1.4648412E-2,2.6757516E-2,3.194461E-4,-5.7296274E-5,1E0,1E0,-0E0,8E0,8E0,4.10796E3,-5.3867726E-3,5.32531E2,-8.072983E-3,1E0,-0E0,3.40333E2,4.48875E2,1E0,-2.373349E-2,1E0,8.012E1,8.930971E-3,4.86528E2,1E0,-2.9391048E-3,-0E0,1E0,1E0,4.149E1,1E0,3.21311E2,3.29403E2,5.506079E-3,1E0,1E0,1E0,6E0,-3.014326E-4,-3.8877085E-2,8.386846E-3,-0E0,1E0,-0E0,1E0,1E0,1E0,5.22642E2,1E0,1E0,2.4270715E-2,-0E0,5E0,-0E0,3.1844137E-4,1E0,1.2343973E-3,1E0,1E0,7.069695E-3,4.05904E2,-0E0,1E0,6E0,-5.6317216E-3,-0E0,1E0,-3.3499359E-3,1E0,-7.992303E-4,1.566611E-2,1.7429203E-3,-5.180944E-3,5.9934277E-3,-1.3002529E-3,-1.6972275E-2,-0E0,1.3411259E-2,-0E0,-1.9308832E-2,2.1483935E-2,3.8018993E-3,-0E0,2.1594195E-2,1.4028042E-2,-7.8930974E-4,1.9786535E-3,-9.20451E-3,9.3732355E-3,-0E0,6.4300206E-3,-2.4476445E-3,-7.6066884E-3,-0E0,-1.6921816E-2,-0E0,-5.185437E-4,1.0374212E-3,7.439975E-3,-0E0,-0E0,-1.961937E-3,-0E0,-2.4728425E-2,-4.7476564E-2,-0E0,-1.701742E-2,-0E0,-1.1440564E-2,-0E0,-0E0,-1.4144787E-2,-3.251304E-2,-9.431331E-3,-3.0104541E-3,-0E0,-5.474748E-2,-3.5332702E-3,-4.0265303E-2,-0E0],"split_indices":[301,527,0,954,493,640,496,3,65,730,87,14,429,3,0,1008,863,445,908,84,879,0,0,83,0,209,3,585,0,0,0,66,118,43,382,94,0,39,1023,0,0,702,411,0,314,0,0,3,0,460,68,2,0,0,84,321,1023,0,125,321,370,0,0,0,0,0,726,149,0,2,2,0,0,0,0,89,0,0,0,60,0,46,3,0,0,9,0,0,366,998,3,390,0,0,0,480,55,493,2,0,0,0,0,9,0,384,37,68,0,171,965,0,0,2,0,0,255,0,5,978,0,0,0,751,2,0,0,23,0,168,0,0,0,0,0,0,0,0,0,0,0,0,0,0,0,0,0,0,0,0,0,0,0,0,0,0,0,0,0,0,0,0,0,0,0,0,0,0,0,0,0,0,0,0,0,0,0,0,0,0,0],"split_type":[0,0,0,0,0,0,0,0,0,0,0,0,0,0,0,0,0,0,0,0,0,0,0,0,0,0,0,0,0,0,0,0,0,0,0,0,0,0,0,0,0,0,0,0,0,0,0,0,0,0,0,0,0,0,0,0,0,0,0,0,0,0,0,0,0,0,0,0,0,0,0,0,0,0,0,0,0,0,0,0,0,0,0,0,0,0,0,0,0,0,0,0,0,0,0,0,0,0,0,0,0,0,0,0,0,0,0,0,0,0,0,0,0,0,0,0,0,0,0,0,0,0,0,0,0,0,0,0,0,0,0,0,0,0,0,0,0,0,0,0,0,0,0,0,0,0,0,0,0,0,0,0,0,0,0,0,0,0,0,0,0,0,0,0,0,0,0,0,0,0,0,0,0,0,0,0,0,0,0,0,0],"sum_hessian":[1.661E3,1.246E3,4.15E2,1.173E3,7.3E1,1.51E2,2.64E2,1.085E3,8.8E1,4.7E1,2.6E1,1.4E1,1.37E2,2.62E2,2E0,3.71E2,7.14E2,1.9E1,6.9E1,7E0,4E1,2.5E1,1E0,1.1E1,3E0,8.7E1,5E1,2.14E2,4.8E1,1E0,1E0,3.41E2,3E1,7.05E2,9E0,9E0,1E1,2.6E1,4.3E1,1E0,6E0,2.4E1,1.6E1,1E0,2.4E1,9E0,2E0,7E1,1.7E1,4.4E1,6E0,2.13E2,1E0,2E0,4.6E1,3.11E2,3E1,1.1E1,1.9E1,6.72E2,3.3E1,5E0,4E0,6E0,3E0,3E0,7E0,2.5E1,1E0,2.7E1,1.6E1,1.9E1,5E0,1.4E1,2E0,2.3E1,1E0,6.4E1,6E0,1.1E1,6E0,2.1E1,2.3E1,3E0,3E0,2.12E2,1E0,1E0,4.5E1,2.79E2,3.2E1,2.3E1,7E0,1.8E1,1E0,6.51E2,2.1E1,2.1E1,1.2E1,1E0,4E0,5E0,2E0,2.4E1,1E0,1.6E1,1.1E1,1.3E1,3E0,1.3E1,6E0,1.3E1,1E0,2.2E1,1E0,1E0,6.3E1,2E0,4E0,7E0,4E0,1.9E1,2E0,2E1,3E0,2E0,1E0,2.11E2,1E0,4.3E1,2E0,2.57E2,2.2E1,8E0,2.4E1,1.9E1,4E0,2E0,5E0,3E0,1.5E1,6.36E2,1.5E1,1.7E1,4E0,1.9E1,2E0,3E0,9E0,2.3E1,1E0,1.2E1,4E0,8E0,3E0,1.2E1,1E0,1E0,2E0,1.2E1,1E0,5E0,1E0,1E0,2.1E1,6.2E1,1E0,3E0,1E0,6E0,1E0,3E0,1.6E1,1.4E1,6E0,2E0,1E0,2.1E2,1E0,4.2E1,1E0],"tree_param":{"num_deleted":"0","num_feature":"1028","num_nodes":"181","size_leaf_vector":"1"}},{"base_weights":[6.818374E-3,4.574709E-1,-1.3450539E0,4.8764837E-1,-2.8112295E-1,-8.3177054E-1,-1.6031554E0,5.301931E-1,8.8197514E-2,-5.689172E-1,3.7030458E-1,-1.0378691E0,-1.6057096E-1,-1.6942126E0,-1.1019633E0,3.60122E-1,6.132048E-1,7.284491E-1,-2.6765352E-2,-5.6019638E-2,-7.701106E-1,6.0911506E-1,-1.4741798E-1,-1.1216196E0,-0E0,-0E0,-2.5317036E-2,-1.7114477E0,5.9894323E-3,-1.147633E0,-0E0,3.9215416E-1,-6.846296E-2,1.7574777E-1,6.4834017E-1,8.3212954E-1,-0E0,-4.353591E-1,1.4622821E-1,-1.3273168E-1,3.6452482E-3,-8.088338E-1,-0E0,-0E0,1.935097E-2,-0E0,-6.688565E-3,-1.1833742E0,-3.765878E-2,-4.992005E-3,8.426342E-3,3.2719123E-1,-2.6008874E-1,-1.7198802E0,-0E0,-0E0,1.215005E-3,-1.1747874E0,-0E0,4.3765604E-1,-0E0,2.8897822E-1,-5.088239E-1,6.5884703E-1,-1.421933E-1,5.827295E-1,8.201067E-1,2.8100027E-2,3.19714E-3,-0E0,-5.6678617E-1,2.9677412E-1,-6.075492E-2,-0E0,-1.77107E-1,-8.476664E-1,-0E0,-0E0,-1.2366619E0,-2.603246E-1,5.70508E-3,3.7590417E-1,-0E0,-0E0,-3.4583515E-1,-1.7250057E0,-6.6633464E-4,-1.1976851E0,-0E0,4.7242922E-1,5.5689845E-2,3.6145967E-1,-2.600672E-1,1.2453339E-2,-2.9332448E-2,-0E0,-1.7623754E-2,7.978697E-1,-0E0,1.639288E-1,-7.474753E-1,5.973863E-1,3.7102506E-2,8.272704E-1,-0E0,2.4175143E-3,-2.7459225E-2,-6.012441E-1,-0E0,3.2934126E-1,-0E0,1.356697E-1,-1.9102089E-1,-7.2188205E-3,-0E0,-1.6549211E-3,-8.940795E-1,5.10993E-4,-0E0,-1.3292558E0,-4.310131E-1,-8.895665E-3,-0E0,4.4719863E-1,-0E0,-4.365087E-1,-0E0,-1.7291756E0,-2.909715E-3,-1.235081E0,-2.1551442E-3,1.4638733E-2,-1.3892181E-3,5.127092E-3,-1.3970845E-2,-1.239543E-3,1.2814618E-2,-9.907097E-3,-0E0,1.4998984E-3,-5.9748907E-3,2.781751E-2,-1.7483407E-3,-1.3396568E-3,7.821202E-4,8.452694E-3,-2.8318216E-3,-2.429241E-2,-0E0,1.8284127E-2,-0E0,-1.418714E-2,7.980377E-3,2.5062796E-2,-0E0,-2.0720745E-3,-0E0,-1.916009E-2,-0E0,1.0395896E-2,-0E0,-5.0021947E-4,-0E0,6.3792784E-3,-0E0,-0E0,-6.6180937E-3,-2.7686547E-2,-0E0,-4.7041077E-2,-2.5499897E-2,-8.997682E-4,-2.4166198E-2,-0E0,1.4605369E-2,-0E0,-1.3904826E-2,-5.209676E-2,-9.8945545E-3,-3.7620485E-2,-0E0],"categories":[],"categories_nodes":[],"categories_segments":[],"categories_sizes":[],"default_left":[0,0,0,0,0,0,0,0,0,0,0,0,0,0,0,0,0,0,0,0,0,0,0,0,0,0,0,0,0,0,0,0,0,0,0,0,0,0,0,0,0,0,0,0,0,0,0,0,0,0,0,0,0,0,0,0,0,0,0,0,0,0,0,0,0,0,0,0,0,0,0,0,0,0,0,0,0,0,0,0,0,0,0,0,0,0,0,0,0,0,0,0,0,0,0,0,0,0,0,0,0,0,0,0,0,0,0,0,0,0,0,0,0,0,0,0,0,0,0,0,0,0,0,0,0,0,0,0,0,0,0,0,0,0,0,0,0,0,0,0,0,0,0,0,0,0,0,0,0,0,0,0,0,0,0,0,0,0,0,0,0,0,0,0,0,0,0,0,0,0,0,0,0,0,0,0,0,0,0,0,0],"id":10,"left_children":[1,3,5,7,9,11,13,15,17,19,21,23,25,27,29,31,33,35,37,39,41,43,45,47,49,51,-1,53,55,57,-1,59,61,63,65,67,-1,69,71,73,-1,75,-1,-1,-1,-1,-1,77,79,-1,-1,81,83,85,-1,-1,-1,87,-1,89,91,93,95,97,99,101,103,-1,-1,105,107,109,111,-1,113,115,-1,117,119,121,-1,123,-1,-1,125,127,-1,129,-1,131,133,135,137,-1,139,-1,-1,141,143,145,147,149,151,153,-1,-1,155,157,-1,159,161,163,165,-1,-1,-1,167,-1,-1,169,171,-1,-1,173,-1,175,-1,177,-1,179,-1,-1,-1,-1,-1,-1,-1,-1,-1,-1,-1,-1,-1,-1,-1,-1,-1,-1,-1,-1,-1,-1,-1,-1,-1,-1,-1,-1,-1,-1,-1,-1,-1,-1,-1,-1,-1,-1,-1,-1,-1,-1,-1,-1,-1,-1,-1,-1,-1,-1,-1],"loss_changes":[1.02123816E3,2.84169E1,5.162445E1,2.0160614E1,9.894507E0,1.9125801E1,7.463745E0,1.4488434E1,9.222455E0,3.2155504E0,2.3886392E0,9.830139E0,4.0312123E0,7.583679E0,2.4000587E0,5.2264442E0,1.0564941E1,1.6893501E0,7.5523496E0,2.1490856E-1,8.743315E-1,1.2447977E-1,1.1814597E-1,6.1282043E0,5.8828557E-1,2.8910885E0,0E0,3.6101685E0,4.777297E-3,1.5838776E0,0E0,6.171463E0,4.4964824E0,9.354326E0,5.927307E0,5.681591E-1,0E0,1.9659634E0,2.4287848E0,1.3362345E-1,0E0,8.252897E-1,0E0,0E0,0E0,0E0,0E0,6.262665E0,5.3992546E-1,0E0,0E0,3.7244368E-1,5.0875235E-1,1.0162964E0,0E0,0E0,0E0,1.0644684E0,0E0,3.7476654E0,3.6460533E0,8.194846E-1,4.3045974E-1,2.3140135E0,7.207286E0,3.6049957E0,1.4280548E0,0E0,0E0,3.699281E-2,6.447029E-1,4.633317E-1,8.7271786E-1,0E0,1.7607781E-1,2.727337E-1,0E0,1.160506E-3,4.837036E0,3.301364E-2,0E0,2.2159731E-1,0E0,0E0,6.8298864E-1,2.7893066E-1,0E0,1.0636749E0,0E0,2.5134315E0,1.7538234E0,6.515794E-1,5.1646364E-1,0E0,1.6186064E-1,0E0,0E0,2.7579412E0,1.20094875E-2,9.078129E-1,6.0493135E-1,3.3151245E0,2.0160837E0,1.0180283E0,0E0,0E0,1.9328682E-2,2.979107E-1,0E0,3.446083E-1,1.1120867E-3,1.8607678E-1,1.5838039E-1,0E0,0E0,0E0,2.4739075E-1,0E0,0E0,5.3947906E0,1.4864237E0,0E0,0E0,1.7033434E-1,0E0,1.009047E-1,0E0,1.3562012E-1,0E0,4.541092E-1,0E0,0E0,0E0,0E0,0E0,0E0,0E0,0E0,0E0,0E0,0E0,0E0,0E0,0E0,0E0,0E0,0E0,0E0,0E0,0E0,0E0,0E0,0E0,0E0,0E0,0E0,0E0,0E0,0E0,0E0,0E0,0E0,0E0,0E0,0E0,0E0,0E0,0E0,0E0,0E0,0E0,0E0,0E0,0E0,0E0,0E0,0E0,0E0,0E0,0E0,0E0],"parents":[2147483647,0,0,1,1,2,2,3,3,4,4,5,5,6,6,7,7,8,8,9,9,10,10,11,11,12,12,13,13,14,14,15,15,16,16,17,17,18,18,19,19,20,20,21,21,22,22,23,23,24,24,25,25,27,27,28,28,29,29,31,31,32,32,33,33,34,34,35,35,37,37,38,38,39,39,41,41,47,47,48,48,51,51,52,52,53,53,57,57,59,59,60,60,61,61,62,62,63,63,64,64,65,65,66,66,69,69,70,70,71,71,72,72,74,74,75,75,77,77,78,78,79,79,81,81,84,84,85,85,87,87,89,89,90,90,91,91,92,92,94,94,97,97,98,98,99,99,100,100,101,101,102,102,103,103,106,106,107,107,109,109,110,110,111,111,112,112,116,116,119,119,120,120,123,123,125,125,127,127,129,129],"right_children":[2,4,6,8,10,12,14,16,18,20,22,24,26,28,30,32,34,36,38,40,42,44,46,48,50,52,-1,54,56,58,-1,60,62,64,66,68,-1,70,72,74,-1,76,-1,-1,-1,-1,-1,78,80,-1,-1,82,84,86,-1,-1,-1,88,-1,90,92,94,96,98,100,102,104,-1,-1,106,108,110,112,-1,114,116,-1,118,120,122,-1,124,-1,-1,126,128,-1,130,-1,132,134,136,138,-1,140,-1,-1,142,144,146,148,150,152,154,-1,-1,156,158,-1,160,162,164,166,-1,-1,-1,168,-1,-1,170,172,-1,-1,174,-1,176,-1,178,-1,180,-1,-1,-1,-1,-1,-1,-1,-1,-1,-1,-1,-1,-1,-1,-1,-1,-1,-1,-1,-1,-1,-1,-1,-1,-1,-1,-1,-1,-1,-1,-1,-1,-1,-1,-1,-1,-1,-1,-1,-1,-1,-1,-1,-1,-1,-1,-1,-1,-1,-1,-1],"split_conditions":[1E0,1E0,5.09946E2,1E0,6.436E1,8.517E1,8.873E1,7.433E1,1E0,4E0,1E0,1E0,1E0,1E0,1E0,1E0,1E0,1E0,1E0,1E0,1E0,4.35452E2,3.89456E2,1E0,1E0,4.82524E2,-2.5317036E-2,1E0,5.1701E2,1E0,-0E0,1E0,1E0,1E0,1E0,1E0,-0E0,1E0,1E0,2.96305E2,3.6452482E-3,1E0,-0E0,-0E0,1.935097E-2,-0E0,-6.688565E-3,3.72428E2,1E0,-4.992005E-3,8.426342E-3,1E0,1E0,1E0,-0E0,-0E0,1.215005E-3,1E0,-0E0,1E0,4.08936E2,1E0,3.29403E2,1E0,1E0,1E0,1E0,2.8100027E-2,3.19714E-3,1E0,1E0,1E0,8.494E1,-0E0,1E0,4.02796E2,-0E0,3.40333E2,1E0,1E0,5.70508E-3,1E0,-0E0,-0E0,1E0,7E0,-6.6633464E-4,1E0,-0E0,1E0,1E0,3.60377E2,6.1E1,1.2453339E-2,2.92442E2,-0E0,-1.7623754E-2,1E0,1E0,9.099E1,1E0,1E0,1E0,1E0,-0E0,2.4175143E-3,1E0,1E0,-0E0,1E0,1E0,1E0,4.67975E2,-7.2188205E-3,-0E0,-1.6549211E-3,1E0,5.10993E-4,-0E0,1E0,1E0,-8.895665E-3,-0E0,4.05351E2,-0E0,4.83005E2,-0E0,1E0,-2.909715E-3,1E0,-2.1551442E-3,1.4638733E-2,-1.3892181E-3,5.127092E-3,-1.3970845E-2,-1.239543E-3,1.2814618E-2,-9.907097E-3,-0E0,1.4998984E-3,-5.9748907E-3,2.781751E-2,-1.7483407E-3,-1.3396568E-3,7.821202E-4,8.452694E-3,-2.8318216E-3,-2.429241E-2,-0E0,1.8284127E-2,-0E0,-1.418714E-2,7.980377E-3,2.5062796E-2,-0E0,-2.0720745E-3,-0E0,-1.916009E-2,-0E0,1.0395896E-2,-0E0,-5.0021947E-4,-0E0,6.3792784E-3,-0E0,-0E0,-6.6180937E-3,-2.7686547E-2,-0E0,-4.7041077E-2,-2.5499897E-2,-8.997682E-4,-2.4166198E-2,-0E0,1.4605369E-2,-0E0,-1.3904826E-2,-5.209676E-2,-9.8945545E-3,-3.7620485E-2,-0E0],"split_indices":[301,676,0,954,3,3,3,3,506,2,43,255,14,496,76,1008,730,15,939,188,89,0,0,679,37,0,0,438,0,373,0,412,699,311,655,421,0,18,397,0,0,900,0,0,0,0,0,0,8,0,0,13,730,424,0,0,0,168,0,46,0,140,0,405,33,388,95,0,0,19,122,553,3,0,5,0,0,0,393,16,0,285,0,0,375,2,0,310,0,795,788,0,3,0,0,0,0,69,33,3,151,440,939,146,0,0,5,291,0,39,820,230,0,0,0,0,152,0,0,670,863,0,0,0,0,0,0,459,0,14,0,0,0,0,0,0,0,0,0,0,0,0,0,0,0,0,0,0,0,0,0,0,0,0,0,0,0,0,0,0,0,0,0,0,0,0,0,0,0,0,0,0,0,0,0,0,0,0,0,0,0],"split_type":[0,0,0,0,0,0,0,0,0,0,0,0,0,0,0,0,0,0,0,0,0,0,0,0,0,0,0,0,0,0,0,0,0,0,0,0,0,0,0,0,0,0,0,0,0,0,0,0,0,0,0,0,0,0,0,0,0,0,0,0,0,0,0,0,0,0,0,0,0,0,0,0,0,0,0,0,0,0,0,0,0,0,0,0,0,0,0,0,0,0,0,0,0,0,0,0,0,0,0,0,0,0,0,0,0,0,0,0,0,0,0,0,0,0,0,0,0,0,0,0,0,0,0,0,0,0,0,0,0,0,0,0,0,0,0,0,0,0,0,0,0,0,0,0,0,0,0,0,0,0,0,0,0,0,0,0,0,0,0,0,0,0,0,0,0,0,0,0,0,0,0,0,0,0,0,0,0,0,0,0,0],"sum_hessian":[1.673E3,1.256E3,4.17E2,1.208E3,4.8E1,1.43E2,2.74E2,1.09E3,1.18E2,3.4E1,1.4E1,1.08E2,3.5E1,2.27E2,4.7E1,3.63E2,7.27E2,1.7E1,1.01E2,1.1E1,2.3E1,1E1,4E0,1E2,8E0,3E1,5E0,2.25E2,2E0,4.5E1,2E0,3.39E2,2.4E1,5.6E1,6.71E2,1.5E1,2E0,3E1,7.1E1,1E1,1E0,2.2E1,1E0,1E0,9E0,1E0,3E0,9.4E1,6E0,5E0,3E0,1.3E1,1.7E1,2.24E2,1E0,1E0,1E0,4.4E1,1E0,3.04E2,3.5E1,1.3E1,1.1E1,2.2E1,3.4E1,4.94E2,1.77E2,1.2E1,3E0,7E0,2.3E1,4.2E1,2.9E1,1E0,9E0,2.1E1,1E0,4E0,9E1,4E0,2E0,1.2E1,1E0,4E0,1.3E1,2.23E2,1E0,4.3E1,1E0,2.77E2,2.7E1,1.4E1,2.1E1,1E1,3E0,2E0,9E0,1.8E1,4E0,2.3E1,1.1E1,4.8E2,1.4E1,1.76E2,1E0,3E0,4E0,2.2E1,1E0,3.8E1,4E0,1E1,1.9E1,7E0,2E0,2E0,1.9E1,2E0,2E0,7.9E1,1.1E1,3E0,1E0,9E0,3E0,1.1E1,2E0,2.22E2,1E0,4.1E1,2E0,2.7E2,7E0,2.4E1,3E0,1E0,1.3E1,1.7E1,4E0,1E0,2E0,1.6E1,2E0,3E0,1E0,1.7E1,6E0,1E1,1E0,4.7E2,1E1,3E0,1.1E1,1.74E2,2E0,3E0,1E0,2E1,2E0,3.7E1,1E0,2E0,2E0,7E0,3E0,2E0,1.7E1,1.8E1,1E0,4.9E1,3E1,7E0,4E0,1E0,8E0,1E0,1E1,2.2E2,2E0,4E1,1E0],"tree_param":{"num_deleted":"0","num_feature":"1028","num_nodes":"181","size_leaf_vector":"1"}},{"base_weights":[3.7016992E-3,4.32842E-1,-1.3584732E0,4.6380687E-1,-3.8463685E-1,-9.39368E-1,-1.6504515E0,5.351465E-1,1.945102E-1,-5.059649E-1,7.369042E-1,-5.6816155E-1,-1.3562227E0,-1.6666522E0,-0E0,5.620225E-1,8.500745E-2,-4.1551957E-1,3.5190347E-1,-1.72348E-1,-7.044421E-1,-0E0,2.5477517E-2,1.4031287E-1,-7.234976E-1,-1.4122963E0,-0E0,-1.6902573E0,-5.2359533E-1,5.439062E-3,-1.0243893E-3,6.403198E-1,4.2483127E-1,1.8187918E-1,-3.6635268E-1,-1.2121656E-1,-7.524636E-1,4.7174215E-1,6.2363613E-2,-2.465241E-1,3.678553E-3,-0E0,-7.418299E-1,3.1854007E-1,-1.0514815E-2,-5.3950095E-1,-1.1477265E0,-1.4581501E0,5.685687E-3,-1.70093E0,-3.7539087E-3,-1.8386709E-2,-0E0,5.011351E-1,7.528304E-1,4.622558E-1,-1.6387999E-1,-2.493796E-2,3.2637602E-1,-1.35900825E-2,-0E0,8.613431E-2,-5.228237E-1,-8.391001E-1,-0E0,4.9225715E-1,-1.1483942E-2,2.1477447E-1,-1.9506948E-1,-1.8484851E-2,-4.644519E-1,-7.6272243E-1,-0E0,2.684024E-2,1.3544597E-2,-5.8863246E-1,-1.6629696E-2,1.1063432E-3,-1.3026195E0,-1.488196E0,-2.1228183E-3,-0E0,1.202855E-3,-1.7076018E0,-0E0,5.1960146E-1,-3.8586238E-1,-9.605932E-2,7.661021E-1,4.804283E-1,-3.0634975E-1,-4.0303612E-1,1.2979896E-1,9.7995885E-2,-1.3448135E-2,4.3323055E-1,4.3317873E-2,1.7416932E-1,-1.8285246E-1,-2.4473773E-2,-0E0,-8.6500204E-1,-0E0,5.319494E-1,-0E0,2.6997292E-1,-7.480986E-2,-2.5690553E-1,1.2800932E-3,-7.364609E-2,1.09820365E-4,-1.5239394E-2,-0E0,-0E0,-7.8248745E-1,1.4149168E-3,-0E0,-6.812348E-1,-1.6043527E-1,-0E0,-3.6982081E-3,-1.3783486E0,-0E0,-4.5221794E-2,-0E0,-1.7127676E0,